{"learner":{"attributes":{"best_iteration":"73","best_score":"2.201709316786e-05","scikit_learn":"{\"_estimator_type\": \"classifier\"}"},"feature_names":["bidirectional_ack_packets","bidirectional_bytes","bidirectional_duration_ms","bidirectional_fin_packets","bidirectional_first_seen_ms","bidirectional_last_seen_ms","bidirectional_max_piat_ms","bidirectional_max_ps","bidirectional_mean_piat_ms","bidirectional_mean_ps","bidirectional_min_piat_ms","bidirectional_min_ps","bidirectional_packets","bidirectional_psh_packets","bidirectional_rst_packets","bidirectional_stddev_piat_ms","bidirectional_stddev_ps","bidirectional_syn_packets","dst2src_ack_packets","dst2src_bytes","dst2src_duration_ms","dst2src_fin_packets","dst2src_first_seen_ms","dst2src_last_seen_ms","dst2src_max_piat_ms","dst2src_max_ps","dst2src_mean_piat_ms","dst2src_mean_ps","dst2src_min_piat_ms","dst2src_min_ps","dst2src_packets","dst2src_psh_packets","dst2src_rst_packets","dst2src_stddev_piat_ms","dst2src_stddev_ps","dst2src_syn_packets","dst_port","expiration_id","protocol","src2dst_ack_packets","src2dst_bytes","src2dst_duration_ms","src2dst_fin_packets","src2dst_first_seen_ms","src2dst_last_seen_ms","src2dst_max_piat_ms","src2dst_max_ps","src2dst_mean_piat_ms","src2dst_mean_ps","src2dst_min_piat_ms","src2dst_min_ps","src2dst_packets","src2dst_psh_packets","src2dst_rst_packets","src2dst_stddev_piat_ms","src2dst_stddev_ps","src2dst_syn_packets","src_port"],"feature_types":["int","int","int","int","int","int","int","int","float","float","int","int","int","int","int","float","float","int","int","int","int","int","int","int","int","int","float","float","int","int","int","int","int","float","float","int","int","int","int","int","int","int","int","int","int","int","int","float","float","int","int","int","int","int","float","float","int","int"],"gradient_booster":{"model":{"gbtree_model_param":{"num_parallel_tree":"1","num_trees":"84"},"iteration_indptr":[0,1,2,3,4,5,6,7,8,9,10,11,12,13,14,15,16,17,18,19,20,21,22,23,24,25,26,27,28,29,30,31,32,33,34,35,36,37,38,39,40,41,42,43,44,45,46,47,48,49,50,51,52,53,54,55,56,57,58,59,60,61,62,63,64,65,66,67,68,69,70,71,72,73,74,75,76,77,78,79,80,81,82,83,84],"tree_info":[0,0,0,0,0,0,0,0,0,0,0,0,0,0,0,0,0,0,0,0,0,0,0,0,0,0,0,0,0,0,0,0,0,0,0,0,0,0,0,0,0,0,0,0,0,0,0,0,0,0,0,0,0,0,0,0,0,0,0,0,0,0,0,0,0,0,0,0,0,0,0,0,0,0,0,0,0,0,0,0,0,0,0,0],"trees":[{"base_weights":[-4.6866525E-2,-1.4485291E0,1.7521996E0,-1.448918E0,5.673862E-1,3.2173889E0,-4.3476942E-1,-4.347769E-1,-1.1366391E0,-3.7443915E-1,8.042008E-1,9.6738935E-1,1.5995545E0,6.790647E-1,-3.8747647E-1,9.573464E-1,-4.2610097E-1],"categories":[],"categories_nodes":[],"categories_segments":[],"categories_sizes":[],"default_left":[0,0,0,0,0,0,0,0,0,0,0,0,0,0,0,0,0],"id":0,"left_children":[1,3,5,7,9,11,-1,-1,13,-1,-1,-1,15,-1,-1,-1,-1],"loss_changes":[2.6526228E5,4.7179688E1,2.1608619E5,4.6015625E0,4.9859406E1,3.650625E2,0E0,0E0,3.9063583E1,0E0,0E0,0E0,6.9100256E2,0E0,0E0,0E0,0E0],"parents":[2147483647,0,0,1,1,2,2,3,3,4,4,5,5,8,8,12,12],"right_children":[2,4,6,8,10,12,-1,-1,14,-1,-1,-1,16,-1,-1,-1,-1],"split_conditions":[1.3129625E12,9.475E3,1.4937265E12,7.988041E7,7.8888824E7,1.3137465E12,-4.3476942E-1,-4.347769E-1,8.2E1,-3.7443915E-1,8.042008E-1,9.6738935E-1,1E0,6.790647E-1,-3.8747647E-1,9.573464E-1,-4.2610097E-1],"split_indices":[4,36,5,22,4,22,0,0,40,0,0,0,37,0,0,0,0],"split_type":[0,0,0,0,0,0,0,0,0,0,0,0,0,0,0,0,0],"sum_hessian":[1.0519053E5,5.912562E4,4.606491E4,5.9114496E4,1.1123327E1,3.16018E4,1.4463106E4,5.9046902E4,6.7595604E1,6.2033944E0,4.9199333E0,3.1459979E4,1.4182243E2,2.3530116E0,6.524259E1,9.2837006E1,4.8985424E1],"tree_param":{"num_deleted":"0","num_feature":"58","num_nodes":"17","size_leaf_vector":"1"}},{"base_weights":[-1.0309571E-1,-1.290058E0,1.0787861E0,-1.2904476E0,3.8650873E-1,1.8417187E0,-3.8723826E-1,-1.2908123E0,-9.672276E-1,-3.2966125E-1,5.10038E-1,5.5353904E-1,9.933758E-1,-3.8725615E-1,-2.2441934E-1,3.3588022E-1,-3.560061E-1,5.512092E-1,-3.7860486E-1],"categories":[],"categories_nodes":[],"categories_segments":[],"categories_sizes":[],"default_left":[0,0,0,0,0,0,0,0,0,0,0,0,0,0,0,0,0,0,0],"id":1,"left_children":[1,3,5,7,9,11,-1,13,15,-1,-1,-1,17,-1,-1,-1,-1,-1,-1],"loss_changes":[1.3568244E5,3.2015625E1,8.7615875E4,4.4453125E0,2.5243118E1,1.0427344E2,0E0,1.171875E-1,2.8057133E1,0E0,0E0,0E0,2.8593857E2,0E0,0E0,0E0,0E0,0E0,0E0],"parents":[2147483647,0,0,1,1,2,2,3,3,4,4,5,5,7,7,8,8,12,12],"right_children":[2,4,6,8,10,12,-1,14,16,-1,-1,-1,18,-1,-1,-1,-1,-1,-1],"split_conditions":[1.3129625E12,9.475E3,1.4937265E12,7.988041E7,7.8888824E7,1.3137465E12,-3.8723826E-1,5.9E3,8.2E1,-3.2966125E-1,5.10038E-1,5.5353904E-1,1E0,-3.8725615E-1,-2.2441934E-1,3.3588022E-1,-3.560061E-1,5.512092E-1,-3.7860486E-1],"split_indices":[4,36,5,22,4,22,0,36,48,0,0,0,37,0,0,0,0,0,0],"split_type":[0,0,0,0,0,0,0,0,0,0,0,0,0,0,0,0,0,0,0],"sum_hessian":[9.671719E4,4.8254836E4,4.8462355E4,4.8243855E4,1.0979626E1,3.665938E4,1.1802978E4,4.8186492E4,5.7362564E1,5.229651E0,5.7499747E0,3.651138E4,1.4799721E2,4.818143E4,5.062413E0,5.0681467E0,5.229442E1,1.07831154E2,4.016605E1],"tree_param":{"num_deleted":"0","num_feature":"58","num_nodes":"19","size_leaf_vector":"1"}},{"base_weights":[-1.06554314E-1,-1.1965826E0,8.8597095E-1,-1.196975E0,3.1158158E-1,1.4828631E0,-3.592123E-1,-1.1973915E0,-8.479703E-1,-2.9766566E-1,4.043175E-1,1.4854798E0,8.1385595E-1,-3.59232E-1,-1.9139355E-1,2.338468E-1,-3.210929E-1,4.458755E-1,4.1072726E-1,4.430875E-1,-3.4933606E-1],"categories":[],"categories_nodes":[],"categories_segments":[],"categories_sizes":[],"default_left":[0,0,0,0,0,0,0,0,0,0,0,0,0,0,0,0,0,0,0,0,0],"id":2,"left_children":[1,3,5,7,9,11,-1,13,15,-1,-1,17,19,-1,-1,-1,-1,-1,-1,-1,-1],"loss_changes":[8.643425E4,2.2910156E1,5.2002074E4,4.515625E0,1.5792135E1,5.5695312E1,0E0,2.734375E-1,1.8491241E1,0E0,0E0,8.75E-1,1.7074963E2,0E0,0E0,0E0,0E0,0E0,0E0,0E0,0E0],"parents":[2147483647,0,0,1,1,2,2,3,3,4,4,5,5,7,7,8,8,11,11,12,12],"right_children":[2,4,6,8,10,12,-1,14,16,-1,-1,18,20,-1,-1,-1,-1,-1,-1,-1,-1],"split_conditions":[1.3129625E12,9.475E3,1.4937265E12,7.988041E7,7.8888824E7,1.3137465E12,-3.592123E-1,5.9E3,8.2E1,-2.9766566E-1,4.043175E-1,1.313745E12,1E0,-3.59232E-1,-1.9139355E-1,2.338468E-1,-3.210929E-1,4.458755E-1,4.1072726E-1,4.430875E-1,-3.4933606E-1],"split_indices":[4,36,5,22,4,22,0,36,48,0,0,4,37,0,0,0,0,0,0,0,0],"split_type":[0,0,0,0,0,0,0,0,0,0,0,0,0,0,0,0,0,0,0,0,0],"sum_hessian":[7.989062E4,3.807501E4,4.1815605E4,3.8065312E4,9.7000065E0,3.2503443E4,9.312162E3,3.8017516E4,4.7796547E1,4.314002E0,5.386005E0,3.2375592E4,1.27851204E2,3.801308E4,4.4377112E0,5.4437838E0,4.2352764E1,3.2150613E4,2.2497878E2,9.594513E1,3.1906075E1],"tree_param":{"num_deleted":"0","num_feature":"58","num_nodes":"21","size_leaf_vector":"1"}},{"base_weights":[-1.0562134E-1,-1.1368691E0,7.891712E-1,-1.1372696E0,2.6622903E-1,1.3081832E0,-3.4132314E-1,-1.137762E0,-7.518182E-1,-2.722763E-1,3.459529E-1,1.3104496E0,7.2141373E-1,-3.4134683E-1,-1.628671E-1,3.5681778E-1,-2.7632514E-1,3.9339274E-1,3.5506576E-1,3.899117E-1,-3.2928318E-1],"categories":[],"categories_nodes":[],"categories_segments":[],"categories_sizes":[],"default_left":[0,0,0,0,0,0,0,0,0,0,0,0,0,0,0,0,0,0,0,0,0],"id":3,"left_children":[1,3,5,7,9,11,-1,13,15,-1,-1,17,19,-1,-1,-1,-1,-1,-1,-1,-1],"loss_changes":[5.84886E4,1.6851562E1,3.394247E4,4.734375E0,1.0640476E1,3.4609375E1,0E0,4.453125E-1,1.440176E1,0E0,0E0,1.3515625E0,1.11982544E2,0E0,0E0,0E0,0E0,0E0,0E0,0E0,0E0],"parents":[2147483647,0,0,1,1,2,2,3,3,4,4,5,5,7,7,8,8,11,11,12,12],"right_children":[2,4,6,8,10,12,-1,14,16,-1,-1,18,20,-1,-1,-1,-1,-1,-1,-1,-1],"split_conditions":[1.3129625E12,9.475E3,1.4937265E12,7.988041E7,7.8888824E7,1.3137465E12,-3.4132314E-1,5.9E3,4.9225E4,-2.722763E-1,3.459529E-1,1.313745E12,1E0,-3.4134683E-1,-1.628671E-1,3.5681778E-1,-2.7632514E-1,3.9339274E-1,3.5506576E-1,3.899117E-1,-3.2928318E-1],"split_indices":[4,36,5,22,4,22,0,36,57,0,0,4,37,0,0,0,0,0,0,0,0],"split_type":[0,0,0,0,0,0,0,0,0,0,0,0,0,0,0,0,0,0,0,0,0],"sum_hessian":[6.338294E4,2.9446082E4,3.393686E4,2.9437867E4,8.215006E0,2.67359E4,7.2009585E3,2.9398371E4,3.9496147E1,3.5257006E0,4.6893053E0,2.6631803E4,1.0409853E2,2.9394453E4,3.9178808E0,2.6843283E0,3.681182E1,2.6443355E4,1.8844614E2,7.9204025E1,2.489451E1],"tree_param":{"num_deleted":"0","num_feature":"58","num_nodes":"21","size_leaf_vector":"1"}},{"base_weights":[-1.0413731E-1,-1.0967851E0,7.321299E-1,-3.2935467E-1,-4.4596535E-1,1.206887E0,-3.2934746E-1,3.759232E-1,-7.27521E-1,1.2089685E0,6.6462857E-1,2.6453555E-1,-2.8638706E-1,3.6301076E-1,3.169794E-1,3.5852563E-1,-3.142389E-1],"categories":[],"categories_nodes":[],"categories_segments":[],"categories_sizes":[],"default_left":[0,0,0,0,0,0,0,0,0,0,0,0,0,0,0,0,0],"id":4,"left_children":[1,3,5,-1,7,9,-1,-1,11,13,15,-1,-1,-1,-1,-1,-1],"loss_changes":[4.0818883E4,1.5076172E1,2.3187842E4,0E0,1.927098E1,2.311914E1,0E0,0E0,1.3105524E1,2.1523438E0,7.686129E1,0E0,0E0,0E0,0E0,0E0,0E0],"parents":[2147483647,0,0,1,1,2,2,4,4,5,5,8,8,9,9,10,10],"right_children":[2,4,6,-1,8,10,-1,-1,12,14,16,-1,-1,-1,-1,-1,-1],"split_conditions":[1.3129625E12,7.988041E7,1.4937265E12,-3.2935467E-1,8.6E1,1.3137465E12,-3.2934746E-1,3.759232E-1,4.9166E4,1.313745E12,1E0,2.6453555E-1,-2.8638706E-1,3.6301076E-1,3.169794E-1,3.5852563E-1,-3.142389E-1],"split_indices":[4,22,5,0,40,22,0,0,57,4,37,0,0,0,0,0,0],"split_type":[0,0,0,0,0,0,0,0,0,0,0,0,0,0,0,0,0],"sum_hessian":[4.9170367E4,2.2482896E4,2.668747E4,2.244552E4,3.7378544E1,2.119028E4,5.4971924E3,4.823098E0,3.2555447E1,2.1108025E4,8.225287E1,3.6695197E0,2.8885925E1,2.0954312E4,1.5371404E2,6.3027153E1,1.9225716E1],"tree_param":{"num_deleted":"0","num_feature":"58","num_nodes":"17","size_leaf_vector":"1"}},{"base_weights":[-1.02800414E-1,-1.069062E0,6.956405E-1,-1.0702833E0,-3.8647348E-1,1.1427008E0,-3.2107827E-1,-3.2111725E-1,-5.816789E-1,8.2119715E-1,-7.241286E-1,1.1446803E0,6.256202E-1,-2.6462314E-1,1.3010268E-1,-2.3130086E-1,3.9903593E-1,1.6363946E-1,-2.7893126E-1,3.4381983E-1,2.8664973E-1,3.379855E-1,-3.018955E-1],"categories":[],"categories_nodes":[],"categories_segments":[],"categories_sizes":[],"default_left":[0,0,0,0,0,0,0,0,0,0,0,0,0,0,0,0,0,0,0,0,0,0,0],"id":5,"left_children":[1,3,5,7,9,11,-1,-1,13,15,17,19,21,-1,-1,-1,-1,-1,-1,-1,-1,-1,-1],"loss_changes":[2.9021117E4,1.3775391E1,1.6261729E4,2.6757812E-1,1.3627695E1,1.6107422E1,0E0,0E0,2.191415E0,7.0640593E0,7.1671257E0,3.1972656E0,5.418456E1,0E0,0E0,0E0,0E0,0E0,0E0,0E0,0E0,0E0,0E0],"parents":[2147483647,0,0,1,1,2,2,3,3,4,4,5,5,8,8,9,9,10,10,11,11,12,12],"right_children":[2,4,6,8,10,12,-1,-1,14,16,18,20,22,-1,-1,-1,-1,-1,-1,-1,-1,-1,-1],"split_conditions":[1.3129625E12,7.988041E7,1.4937265E12,5.9E3,8.6E1,1.3137465E12,-3.2107827E-1,-3.2111725E-1,1.91979E7,6.6E1,4.9166E4,1.313745E12,1E0,-2.6462314E-1,1.3010268E-1,-2.3130086E-1,3.9903593E-1,1.6363946E-1,-2.7893126E-1,3.4381983E-1,2.8664973E-1,3.379855E-1,-3.018955E-1],"split_indices":[4,22,5,36,46,22,0,0,4,7,57,4,37,0,0,0,0,0,0,0,0,0,0],"split_type":[0,0,0,0,0,0,0,0,0,0,0,0,0,0,0,0,0,0,0,0,0,0,0],"sum_hessian":[3.7614383E4,1.7018502E4,2.0595883E4,1.698754E4,3.0961264E1,1.6435404E4,4.160478E3,1.698261E4,4.9305477E0,6.4521594E0,2.4509106E1,1.6371518E4,6.388619E1,3.9061532E0,1.0243945E0,1.4380738E0,5.014086E0,3.1861236E0,2.132298E1,1.624744E4,1.2407726E2,4.9117096E1,1.4769092E1],"tree_param":{"num_deleted":"0","num_feature":"58","num_nodes":"23","size_leaf_vector":"1"}},{"base_weights":[-1.0173859E-1,-1.0494541E0,6.7108834E-1,-1.0508416E0,-3.4245273E-1,1.0997678E0,-3.1524476E-1,-3.1529555E-1,-5.0424385E-1,-3.0076802E-1,2.4799922E-1,3.3110914E-1,7.8388715E-1,1.2928082E-1,-2.4943165E-1,4.5880464E-1,-2.8205732E-1,3.2878944E-1,-6.9442815E-1],"categories":[],"categories_nodes":[],"categories_segments":[],"categories_sizes":[],"default_left":[0,0,0,0,0,0,0,0,0,0,0,0,0,0,0,0,0,0,0],"id":6,"left_children":[1,3,5,7,9,11,-1,-1,13,-1,15,-1,17,-1,-1,-1,-1,-1,-1],"loss_changes":[2.0883102E4,1.2205078E1,1.1594033E4,4.716797E-1,1.0603951E1,1.4743164E1,0E0,0E0,1.9731051E0,0E0,2.400993E1,0E0,1.5528256E2,0E0,0E0,0E0,0E0,0E0,0E0],"parents":[2147483647,0,0,1,1,2,2,3,3,4,4,5,5,8,8,10,10,12,12],"right_children":[2,4,6,8,10,12,-1,-1,14,-1,16,-1,18,-1,-1,-1,-1,-1,-1],"split_conditions":[1.3129625E12,7.988041E7,1.4937265E12,5.9E3,6E1,2.00001E0,-3.1524476E-1,-3.1529555E-1,6.22E2,-3.0076802E-1,8.6E1,3.3110914E-1,1.313745E12,1.2928082E-1,-2.4943165E-1,4.5880464E-1,-2.8205732E-1,3.2878944E-1,-6.9442815E-1],"split_indices":[4,22,5,36,11,37,0,0,2,0,11,0,4,0,0,0,0,0,0],"split_type":[0,0,0,0,0,0,0,0,0,0,0,0,0,0,0,0,0,0,0],"sum_hessian":[2.8510504E4,1.2806083E4,1.5704422E4,1.2780515E4,2.5568335E1,1.2574322E4,3.1300994E3,1.2776237E4,4.2773895E0,1.1742558E1,1.3825776E1,1.2417367E4,1.5695523E2,1.0264775E0,3.250912E0,6.5139647E0,7.311812E0,1.4318117E2,1.3774061E1],"tree_param":{"num_deleted":"0","num_feature":"58","num_nodes":"19","size_leaf_vector":"1"}},{"base_weights":[-1.00968964E-1,-1.0354197E0,6.542621E-1,-1.0369102E0,-3.2181695E-1,1.0705537E0,-3.1106356E-1,-1.0371017E0,-4.3448293E-1,-2.8804553E-1,2.2253652E-1,3.223255E-1,7.576357E-1,-1.1716742E-1,-3.1116188E-1,1.3445309E-1,-2.3703028E-1,3.9926007E-1,-2.6193276E-1,3.194368E-1,-7.1751595E-1],"categories":[],"categories_nodes":[],"categories_segments":[],"categories_sizes":[],"default_left":[0,0,0,0,0,0,0,0,0,0,0,0,0,0,0,0,0,0,0,0,0],"id":7,"left_children":[1,3,5,7,9,11,-1,13,15,-1,17,-1,19,-1,-1,-1,-1,-1,-1,-1,-1],"loss_changes":[1.5152443E4,9.873047E0,8.360567E3,6.542969E-1,7.6679645E0,1.0709961E1,0E0,2.421875E-1,1.8499008E0,0E0,1.620814E1,0E0,1.1828411E2,0E0,0E0,0E0,0E0,0E0,0E0,0E0,0E0],"parents":[2147483647,0,0,1,1,2,2,3,3,4,4,5,5,7,7,8,8,10,10,12,12],"right_children":[2,4,6,8,10,12,-1,14,16,-1,18,-1,20,-1,-1,-1,-1,-1,-1,-1,-1],"split_conditions":[1.3129625E12,7.988041E7,1.4937265E12,5.9E3,6E1,2.00001E0,-3.1106356E-1,2E0,2.636592E6,-2.8804553E-1,8.6E1,3.223255E-1,1.313745E12,-1.1716742E-1,-3.1116188E-1,1.3445309E-1,-2.3703028E-1,3.9926007E-1,-2.6193276E-1,3.194368E-1,-7.1751595E-1],"split_indices":[4,22,5,36,11,37,0,38,23,0,11,0,4,0,0,0,0,0,0,0,0],"split_type":[0,0,0,0,0,0,0,0,0,0,0,0,0,0,0,0,0,0,0,0,0],"sum_hessian":[2.146875E4,9.5956455E3,1.18731045E4,9.575193E3,2.0452461E1,9.528046E3,2.3450586E3,9.571428E3,3.7653546E0,9.062041E0,1.1390419E1,9.4094E3,1.1864556E2,2.1500487E0,9.569277E3,1.0066149E0,2.7587397E0,5.5557055E0,5.834713E0,1.0870552E2,9.940042E0],"tree_param":{"num_deleted":"0","num_feature":"58","num_nodes":"21","size_leaf_vector":"1"}},{"base_weights":[-1.0036888E-1,-1.0251728E0,6.423238E-1,-1.0267979E0,-3.021409E-1,1.0498594E0,-3.0802727E-1,-1.0270544E0,-3.71542E-1,-4.8578385E-1,3.8277668E-1,3.161289E-1,7.227064E-1,-1.01612106E-1,-3.0815783E-1,1.3329037E-1,-2.237729E-1,1.4610712E-1,-2.3429197E-1,3.1454495E-1,-6.146731E-1],"categories":[],"categories_nodes":[],"categories_segments":[],"categories_sizes":[],"default_left":[0,0,0,0,0,0,0,0,0,0,0,0,0,0,0,0,0,0,0,0,0],"id":8,"left_children":[1,3,5,7,9,11,-1,13,15,17,-1,-1,19,-1,-1,-1,-1,-1,-1,-1,-1],"loss_changes":[1.1057032E4,8.11377E0,6.074193E3,8.208008E-1,5.689871E0,8.40332E0,0E0,3.3251953E-1,1.665236E0,5.088533E0,0E0,0E0,8.1431595E1,0E0,0E0,0E0,0E0,0E0,0E0,0E0,0E0],"parents":[2147483647,0,0,1,1,2,2,3,3,4,4,5,5,7,7,8,8,9,9,12,12],"right_children":[2,4,6,8,10,12,-1,14,16,18,-1,-1,20,-1,-1,-1,-1,-1,-1,-1,-1],"split_conditions":[1.3129625E12,7.988041E7,1.4937265E12,5.9E3,2E0,1.313745E12,-3.0802727E-1,2E0,1.7888544E0,8.2E1,3.8277668E-1,3.161289E-1,1E0,-1.01612106E-1,-3.0815783E-1,1.3329037E-1,-2.237729E-1,1.4610712E-1,-2.3429197E-1,3.1454495E-1,-6.146731E-1],"split_indices":[4,22,5,36,3,4,0,38,16,48,0,0,37,0,0,0,0,0,0,0,0],"split_type":[0,0,0,0,0,0,0,0,0,0,0,0,0,0,0,0,0,0,0,0,0],"sum_hessian":[1.609633E4,7.169036E3,8.927294E3,7.1525415E3,1.6494982E1,7.175613E3,1.7516812E3,7.1491743E3,3.3671162E0,1.5395532E1,1.09945E0,7.0888057E3,8.680693E1,1.9276344E0,7.1472466E3,1.0003316E0,2.3667846E0,3.4327867E0,1.1962745E1,7.823309E1,8.573835E0],"tree_param":{"num_deleted":"0","num_feature":"58","num_nodes":"21","size_leaf_vector":"1"}},{"base_weights":[-9.985485E-2,-1.017285E0,6.3371134E-1,-1.0193688E0,-2.3467283E-1,1.0349461E0,-3.0579424E-1,-1.019711E0,-3.1697848E-1,-2.702698E-1,2.764662E-1,3.1173128E-1,6.9392204E-1,-8.7722786E-2,-3.059686E-1,1.3459116E-1,-2.1600904E-1,3.3013868E-1,-2.2067907E-1,3.0832726E-1,-4.9140865E-1],"categories":[],"categories_nodes":[],"categories_segments":[],"categories_sizes":[],"default_left":[0,0,0,0,0,0,0,0,0,0,0,0,0,0,0,0,0,0,0,0,0],"id":9,"left_children":[1,3,5,7,9,11,-1,13,15,-1,17,-1,19,-1,-1,-1,-1,-1,-1,-1,-1],"loss_changes":[8.0990293E3,8.47998E0,4.4364365E3,9.589844E-1,5.5265784E0,6.9101562E0,0E0,4.1601562E-1,1.5721883E0,0E0,8.760877E0,0E0,5.449661E1,0E0,0E0,0E0,0E0,0E0,0E0,0E0,0E0],"parents":[2147483647,0,0,1,1,2,2,3,3,4,4,5,5,7,7,8,8,10,10,12,12],"right_children":[2,4,6,8,10,12,-1,14,16,-1,18,-1,20,-1,-1,-1,-1,-1,-1,-1,-1],"split_conditions":[1.3129625E12,7.988041E7,1.4937265E12,5.9E3,6E1,1.313745E12,-3.0579424E-1,2E0,1E0,-2.702698E-1,8.6E1,3.1173128E-1,1E0,-8.7722786E-2,-3.059686E-1,1.3459116E-1,-2.1600904E-1,3.3013868E-1,-2.2067907E-1,3.0832726E-1,-4.9140865E-1],"split_indices":[4,22,5,36,11,4,0,38,49,0,11,0,37,0,0,0,0,0,0,0,0],"split_type":[0,0,0,0,0,0,0,0,0,0,0,0,0,0,0,0,0,0,0,0,0],"sum_hessian":[1.2032337E4,5.346003E3,6.6863335E3,5.3315054E3,1.4497732E1,5.380671E3,1.3056628E3,5.328457E3,3.0480435E0,5.9629707E0,8.534761E0,5.31383E3,6.684063E1,1.752246E0,5.326705E3,1.012207E0,2.0358365E0,4.6563416E0,3.87842E0,5.8959435E1,7.8811946E0],"tree_param":{"num_deleted":"0","num_feature":"58","num_nodes":"21","size_leaf_vector":"1"}},{"base_weights":[-9.951348E-2,-1.0115098E0,6.274112E-1,-1.0138276E0,-2.2134246E-1,1.0240784E0,-3.041272E-1,-1.0142893E0,-2.6884103E-1,-2.569398E-1,2.4003598E-1,3.0855465E-1,6.67592E-1,-7.5461395E-2,-3.0436087E-1,1.3080001E-1,-2.0400469E-1,-1.2479065E-1,4.0943986E-1,3.031224E-1,-4.0897724E-1],"categories":[],"categories_nodes":[],"categories_segments":[],"categories_sizes":[],"default_left":[0,0,0,0,0,0,0,0,0,0,0,0,0,0,0,0,0,0,0,0,0],"id":10,"left_children":[1,3,5,7,9,11,-1,13,15,-1,17,-1,19,-1,-1,-1,-1,-1,-1,-1,-1],"loss_changes":[5.9504688E3,7.0664062E0,3.252588E3,1.0922852E0,3.9923322E0,5.676758E0,0E0,4.9145508E-1,1.4032006E0,0E0,6.666954E0,0E0,3.7794083E1,0E0,0E0,0E0,0E0,0E0,0E0,0E0,0E0],"parents":[2147483647,0,0,1,1,2,2,3,3,4,4,5,5,7,7,8,8,10,10,12,12],"right_children":[2,4,6,8,10,12,-1,14,16,-1,18,-1,20,-1,-1,-1,-1,-1,-1,-1,-1],"split_conditions":[1.3129625E12,7.988041E7,1.4937265E12,5.9E3,6E1,1.313745E12,-3.041272E-1,2E0,1.412E3,-2.569398E-1,7.0710677E-1,3.0855465E-1,1E0,-7.5461395E-2,-3.0436087E-1,1.3080001E-1,-2.0400469E-1,-1.2479065E-1,4.0943986E-1,3.031224E-1,-4.0897724E-1],"split_indices":[4,22,5,36,11,4,0,38,6,0,34,0,37,0,0,0,0,0,0,0,0],"split_type":[0,0,0,0,0,0,0,0,0,0,0,0,0,0,0,0,0,0,0,0,0],"sum_hessian":[8.97375E3,3.9800305E3,4.993719E3,3.968108E3,1.1922637E1,4.0219888E3,9.717306E2,3.965289E3,2.81872E0,4.656408E0,7.2662296E0,3.9706816E3,5.1307156E1,1.6129602E0,3.9636763E3,1.0162587E0,1.8024613E0,4.987501E0,2.2787282E0,4.4327038E1,6.98012E0],"tree_param":{"num_deleted":"0","num_feature":"58","num_nodes":"21","size_leaf_vector":"1"}},{"base_weights":[-9.923062E-2,-1.0067365E0,6.227384E-1,-1.0096172E0,-1.7946768E-1,1.016067E0,-3.0285656E-1,-1.0102359E0,-2.289203E-1,-2.4314745E-1,2.1936451E-1,3.0623707E-1,6.432009E-1,-6.473501E-2,-3.0317026E-1,1.3064049E-1,-1.9453897E-1,-1.264767E-1,3.421954E-1,2.9839393E-1,-3.555507E-1],"categories":[],"categories_nodes":[],"categories_segments":[],"categories_sizes":[],"default_left":[0,0,0,0,0,0,0,0,0,0,0,0,0,0,0,0,0,0,0,0,0],"id":11,"left_children":[1,3,5,7,9,11,-1,13,15,-1,17,-1,19,-1,-1,-1,-1,-1,-1,-1,-1],"loss_changes":[4.379708E3,6.8774414E0,2.391223E3,1.1938477E0,3.0704722E0,4.6276855E0,0E0,5.5859375E-1,1.2941641E0,0E0,5.1042824E0,0E0,2.7033754E1,0E0,0E0,0E0,0E0,0E0,0E0,0E0,0E0],"parents":[2147483647,0,0,1,1,2,2,3,3,4,4,5,5,7,7,8,8,10,10,12,12],"right_children":[2,4,6,8,10,12,-1,14,16,-1,18,-1,20,-1,-1,-1,-1,-1,-1,-1,-1],"split_conditions":[1.3129625E12,7.988041E7,1.4937265E12,5.9E3,6E1,1.313745E12,-3.0285656E-1,2E0,9.13E2,-2.4314745E-1,8E1,3.0623707E-1,1E0,-6.473501E-2,-3.0317026E-1,1.3064049E-1,-1.9453897E-1,-1.264767E-1,3.421954E-1,2.9839393E-1,-3.555507E-1],"split_indices":[4,22,5,36,11,4,0,38,2,0,36,0,37,0,0,0,0,0,0,0,0],"split_type":[0,0,0,0,0,0,0,0,0,0,0,0,0,0,0,0,0,0,0,0,0],"sum_hessian":[6.682669E3,2.9607056E3,3.7219636E3,2.9502117E3,1.0493819E1,2.9995374E3,7.224263E2,2.947582E3,2.6298363E0,3.664215E0,6.829604E0,2.9603008E3,3.9236603E1,1.5015521E0,2.9460803E3,1.0032035E0,1.6266329E0,4.3474245E0,2.4821796E0,3.3293068E1,5.9435334E0],"tree_param":{"num_deleted":"0","num_feature":"58","num_nodes":"21","size_leaf_vector":"1"}},{"base_weights":[-9.902415E-2,-1.0028384E0,6.192078E-1,-1.0063251E0,-1.4880365E-1,1.0100739E0,-3.0185738E-1,-1.0071505E0,-1.9562204E-1,5.815971E-1,-4.4585556E-1,3.0452976E-1,6.195022E-1,-5.5417437E-2,-3.02279E-1,1.296323E-1,-1.8764909E-1,2.4708575E-1,7.475231E-3,-2.0537947E-1,1.3319942E-1,2.9371572E-1,-3.1802058E-1],"categories":[],"categories_nodes":[],"categories_segments":[],"categories_sizes":[],"default_left":[0,0,0,0,0,0,0,0,0,0,0,0,0,0,0,0,0,0,0,0,0,0,0],"id":12,"left_children":[1,3,5,7,9,11,-1,13,15,17,19,-1,21,-1,-1,-1,-1,-1,-1,-1,-1,-1,-1],"loss_changes":[3.228177E3,6.4069824E0,1.7614951E3,1.2702637E0,2.4564826E0,3.756836E0,0E0,6.1743164E-1,1.2070315E0,4.3240094E-1,1.9536093E0,0E0,1.9727533E1,0E0,0E0,0E0,0E0,0E0,0E0,0E0,0E0,0E0,0E0],"parents":[2147483647,0,0,1,1,2,2,3,3,4,4,5,5,7,7,8,8,9,9,10,10,12,12],"right_children":[2,4,6,8,10,12,-1,14,16,18,20,-1,22,-1,-1,-1,-1,-1,-1,-1,-1,-1,-1],"split_conditions":[1.3129625E12,7.988041E7,1.4937265E12,5.9E3,6E0,1.313745E12,-3.0185738E-1,2E0,5.1762E4,8E1,1.8E1,3.0452976E-1,1E0,-5.5417437E-2,-3.02279E-1,1.296323E-1,-1.8764909E-1,2.4708575E-1,7.475231E-3,-2.0537947E-1,1.3319942E-1,2.9371572E-1,-3.1802058E-1],"split_indices":[4,22,5,36,2,4,0,38,57,11,18,0,37,0,0,0,0,0,0,0,0,0,0],"split_type":[0,0,0,0,0,0,0,0,0,0,0,0,0,0,0,0,0,0,0,0,0,0,0],"sum_hessian":[4.970986E3,2.200946E3,2.7700398E3,2.1918193E3,9.126771E0,2.2333547E3,5.3668506E2,2.189348E3,2.4714322E0,2.3617435E0,6.7650275E0,2.2034058E3,2.9948805E1,1.4118208E0,2.187936E3,1.0024295E0,1.4690028E0,1.3118727E0,1.0498706E0,5.515825E0,1.2492025E0,2.501159E1,4.9372153E0],"tree_param":{"num_deleted":"0","num_feature":"58","num_nodes":"23","size_leaf_vector":"1"}},{"base_weights":[-9.881425E-2,-9.9910504E-1,6.164676E-1,-1.003633E0,-9.946782E-2,1.0054984E0,-3.0103394E-1,-1.0047356E0,-1.6803621E-1,-2.196589E-1,2.4556997E-1,3.0326432E-1,5.963576E-1,-4.7366977E-2,-3.016009E-1,-1.8002269E-1,1.2641153E-1,2.3506321E-1,-1.7606491E-1,2.8826588E-1,-2.8922457E-1],"categories":[],"categories_nodes":[],"categories_segments":[],"categories_sizes":[],"default_left":[0,0,0,0,0,0,0,0,0,0,0,0,0,0,0,0,0,0,0,0,0],"id":13,"left_children":[1,3,5,7,9,11,-1,13,15,-1,17,-1,19,-1,-1,-1,-1,-1,-1,-1,-1],"loss_changes":[2.3809534E3,6.5683594E0,1.2995068E3,1.331543E0,2.211805E0,3.057129E0,0E0,6.685791E-1,1.105113E0,0E0,3.4925954E0,0E0,1.4589313E1,0E0,0E0,0E0,0E0,0E0,0E0,0E0,0E0],"parents":[2147483647,0,0,1,1,2,2,3,3,4,4,5,5,7,7,8,8,10,10,12,12],"right_children":[2,4,6,8,10,12,-1,14,16,-1,18,-1,20,-1,-1,-1,-1,-1,-1,-1,-1],"split_conditions":[1.3129625E12,7.988041E7,1.4937265E12,5.9E3,6E1,2.00001E0,-3.0103394E-1,2E0,1.2024659E7,-2.196589E-1,8.6E1,3.0326432E-1,1.313745E12,-4.7366977E-2,-3.016009E-1,-1.8002269E-1,1.2641153E-1,2.3506321E-1,-1.7606491E-1,2.8826588E-1,-2.8922457E-1],"split_indices":[4,22,5,36,11,37,0,38,5,0,11,0,4,0,0,0,0,0,0,0,0],"split_type":[0,0,0,0,0,0,0,0,0,0,0,0,0,0,0,0,0,0,0,0,0],"sum_hessian":[3.6953965E3,1.6359315E3,2.059465E3,1.6276239E3,8.307641E0,1.6609568E3,3.985082E2,1.625277E3,2.3468153E0,2.535669E0,5.7719717E0,1.6379373E3,2.301959E1,1.3390738E0,1.623938E3,1.3437442E0,1.0030712E0,3.5418189E0,2.2301528E0,1.8971863E1,4.047728E0],"tree_param":{"num_deleted":"0","num_feature":"58","num_nodes":"21","size_leaf_vector":"1"}},{"base_weights":[-9.875774E-2,-9.9611366E-1,6.142609E-1,-3.010938E-1,-2.8805557E-1,1.0018998E0,-3.0030906E-1,-4.8958856E-1,3.1843108E-1,3.0229405E-1,5.6449497E-1,1.3134664E-1,-2.1279751E-1,2.8279412E-1,-2.653959E-1],"categories":[],"categories_nodes":[],"categories_segments":[],"categories_sizes":[],"default_left":[0,0,0,0,0,0,0,0,0,0,0,0,0,0,0],"id":14,"left_children":[1,3,5,-1,7,9,-1,11,-1,-1,13,-1,-1,-1,-1],"loss_changes":[1.7579828E3,6.1988525E0,9.5971747E2,0E0,4.383597E0,2.536377E0,0E0,2.9690773E0,0E0,0E0,1.0858849E1,0E0,0E0,0E0,0E0],"parents":[2147483647,0,0,1,1,2,2,4,4,5,5,7,7,10,10],"right_children":[2,4,6,-1,8,10,-1,12,-1,-1,14,-1,-1,-1,-1],"split_conditions":[1.3129625E12,7.8888824E7,1.4937265E12,-3.010938E-1,5.9E3,1.313745E12,-3.0030906E-1,8.2E1,3.1843108E-1,3.0229405E-1,1E0,1.3134664E-1,-2.1279751E-1,2.8279412E-1,-2.653959E-1],"split_indices":[4,4,5,0,36,4,0,48,0,0,37,0,0,0,0],"split_type":[0,0,0,0,0,0,0,0,0,0,0,0,0,0,0],"sum_hessian":[2.7456152E3,1.2154885E3,1.5301267E3,1.2022811E3,1.3207333E1,1.2342985E3,2.9582822E2,1.2045644E1,1.1616892E0,1.2170048E3,1.729373E1,2.1172366E0,9.928408E0,1.3992051E1,3.3016794E0],"tree_param":{"num_deleted":"0","num_feature":"58","num_nodes":"15","size_leaf_vector":"1"}},{"base_weights":[-9.85105E-2,-9.925173E-1,6.12377E-1,-3.006579E-1,-2.2241971E-1,9.989462E-1,-2.9961628E-1,1.6963427E-1,-2.571168E-1,3.0086157E-1,3.1701946E-1,-2.112536E-1,1.7827542E-1,2.4148671E-1,-2.0917639E-1],"categories":[],"categories_nodes":[],"categories_segments":[],"categories_sizes":[],"default_left":[0,0,0,0,0,0,0,0,0,0,0,0,0,0,0],"id":15,"left_children":[1,3,5,-1,7,9,-1,11,-1,-1,13,-1,-1,-1,-1],"loss_changes":[1.2974956E3,6.5150146E0,7.0933545E2,0E0,3.2569633E0,2.138977E0,0E0,3.5964026E0,0E0,0E0,3.8847044E0,0E0,0E0,0E0,0E0],"parents":[2147483647,0,0,1,1,2,2,4,4,5,5,7,7,10,10],"right_children":[2,4,6,-1,8,10,-1,12,-1,-1,14,-1,-1,-1,-1],"split_conditions":[1.3129625E12,7.8888824E7,1.4937265E12,-3.006579E-1,5.8E1,2.16E2,-2.9961628E-1,6E1,-2.571168E-1,3.0086157E-1,2.00001E0,-2.112536E-1,1.7827542E-1,2.4148671E-1,-2.0917639E-1],"split_indices":[4,4,5,0,38,11,0,11,0,0,37,0,0,0,0],"split_type":[0,0,0,0,0,0,0,0,0,0,0,0,0,0,0],"sum_hessian":[2.0396133E3,9.032706E2,1.1363425E3,8.917649E2,1.1505753E1,9.16755E2,2.1958757E2,7.5650563E0,3.9406958E0,9.110396E2,5.7153735E0,2.2586439E0,5.3064127E0,3.998291E0,1.7170826E0],"tree_param":{"num_deleted":"0","num_feature":"58","num_nodes":"15","size_leaf_vector":"1"}},{"base_weights":[-9.864274E-2,-9.8895746E-1,6.0978955E-1,-3.0028278E-1,-2.1005638E-1,9.947695E-1,-2.988932E-1,2.4095677E-1,-6.4503014E-1,3.0094588E-1,4.2324147E-1,2.728405E-1,-1.6022712E-1,-2.3861775E-1,-3.9366935E-3,2.6753417E-1,-2.4487974E-1],"categories":[],"categories_nodes":[],"categories_segments":[],"categories_sizes":[],"default_left":[0,0,0,0,0,0,0,0,0,0,0,0,0,0,0,0,0],"id":16,"left_children":[1,3,5,-1,7,9,-1,11,13,-1,15,-1,-1,-1,-1,-1,-1],"loss_changes":[9.577115E2,6.0705566E0,5.238827E2,0E0,2.4038706E0,2.8462524E0,0E0,3.7783868E0,5.6975436E-1,0E0,7.4638314E0,0E0,0E0,0E0,0E0,0E0,0E0],"parents":[2147483647,0,0,1,1,2,2,4,4,5,5,7,7,8,8,10,10],"right_children":[2,4,6,-1,8,10,-1,12,14,-1,16,-1,-1,-1,-1,-1,-1],"split_conditions":[1.3129625E12,7.8888824E7,1.4937265E12,-3.0028278E-1,8.2E1,2.00001E0,-2.988932E-1,6.16E2,1.021E2,3.0094588E-1,1.313745E12,2.728405E-1,-1.6022712E-1,-2.3861775E-1,-3.9366935E-3,2.6753417E-1,-2.4487974E-1],"split_indices":[4,4,5,0,11,37,0,47,48,0,4,0,0,0,0,0,0],"split_type":[0,0,0,0,0,0,0,0,0,0,0,0,0,0,0,0,0],"sum_hessian":[1.5164669E3,6.717971E2,8.4466986E2,6.613359E2,1.0461205E1,6.81658E2,1.6301183E2,5.3548946E0,5.1063104E0,6.710595E2,1.0598474E1,2.7819269E0,2.5729675E0,3.915825E0,1.1904856E0,7.8947573E0,2.703716E0],"tree_param":{"num_deleted":"0","num_feature":"58","num_nodes":"17","size_leaf_vector":"1"}},{"base_weights":[-9.86493E-2,-9.84848E-1,6.08048E-1,-2.9993424E-1,-1.8553121E-1,9.923025E-1,-2.9807654E-1,-3.676058E-1,1.9913398E-1,3.0042702E-1,3.8050988E-1,-1.9554874E-1,8.8261865E-2,2.5724164E-1,-2.2598144E-1],"categories":[],"categories_nodes":[],"categories_segments":[],"categories_sizes":[],"default_left":[0,0,0,0,0,0,0,0,0,0,0,0,0,0,0],"id":17,"left_children":[1,3,5,-1,7,9,-1,11,-1,-1,13,-1,-1,-1,-1],"loss_changes":[7.0703827E2,5.792389E0,3.8758832E2,0E0,1.8541994E0,2.448761E0,0E0,1.9257073E0,0E0,0E0,5.5465136E0,0E0,0E0,0E0,0E0],"parents":[2147483647,0,0,1,1,2,2,4,4,5,5,7,7,10,10],"right_children":[2,4,6,-1,8,10,-1,12,-1,-1,14,-1,-1,-1,-1],"split_conditions":[1.3129625E12,7.8888824E7,1.4937265E12,-2.9993424E-1,2.078E3,1.313745E12,-2.9807654E-1,1E1,1.9913398E-1,3.0042702E-1,1E0,-1.9554874E-1,8.8261865E-2,2.5724164E-1,-2.2598144E-1],"split_indices":[4,4,5,0,36,4,0,12,0,0,37,0,0,0,0],"split_type":[0,0,0,0,0,0,0,0,0,0,0,0,0,0,0],"sum_hessian":[1.1270032E3,4.9982672E2,6.271765E2,4.9041406E2,9.4126425E0,5.0612955E2,1.2104694E2,8.218039E0,1.1946044E0,4.980673E2,8.062256E0,5.7595944E0,2.458444E0,5.846458E0,2.215798E0],"tree_param":{"num_deleted":"0","num_feature":"58","num_nodes":"15","size_leaf_vector":"1"}},{"base_weights":[-9.8381996E-2,-2.995807E-1,5.9220755E-1,9.6386784E-1,-2.9709646E-1,-1.3723423E-1,9.8980457E-1,1.4792773E-1,-1.1433207E-1,2.99953E-1,1.0398421E-1],"categories":[],"categories_nodes":[],"categories_segments":[],"categories_sizes":[],"default_left":[0,0,0,0,0,0,0,0,0,0,0],"id":18,"left_children":[1,-1,3,5,-1,7,9,-1,-1,-1,-1],"loss_changes":[5.222999E2,0E0,2.806344E2,1.1147705E1,0E0,1.6869546E0,2.0865784E0,0E0,0E0,0E0,0E0],"parents":[2147483647,0,0,2,2,3,3,5,5,6,6],"right_children":[2,-1,4,6,-1,8,10,-1,-1,-1,-1],"split_conditions":[7.8888824E7,-2.995807E-1,1.4937265E12,1.3129625E12,-2.9709646E-1,8.2E1,2.00001E0,1.4792773E-1,-1.1433207E-1,2.99953E-1,1.0398421E-1],"split_indices":[4,0,5,4,0,46,37,0,0,0,0],"split_type":[0,0,0,0,0,0,0,0,0,0,0],"sum_hessian":[8.3818774E2,3.6367368E2,4.7451404E2,3.8458447E2,8.992955E1,8.751751E0,3.7583273E2,2.1563654E0,6.5953856E0,3.6951102E2,6.3217225E0],"tree_param":{"num_deleted":"0","num_feature":"58","num_nodes":"11","size_leaf_vector":"1"}},{"base_weights":[-9.792647E-2,-2.9919052E-1,5.855887E-1,9.520217E-1,-2.958721E-1,-1.0006726E-1,9.8350596E-1,4.626966E-2,-2.1088503E-1,2.9947746E-1,5.675673E-2],"categories":[],"categories_nodes":[],"categories_segments":[],"categories_sizes":[],"default_left":[0,0,0,0,0,0,0,0,0,0,0],"id":19,"left_children":[1,-1,3,5,-1,7,9,-1,-1,-1,-1],"loss_changes":[3.8545352E2,0E0,2.0618881E2,9.687683E0,0E0,1.537166E0,3.1059265E0,0E0,0E0,0E0,0E0],"parents":[2147483647,0,0,2,2,3,3,5,5,6,6],"right_children":[2,-1,4,6,-1,8,10,-1,-1,-1,-1],"split_conditions":[7.8888824E7,-2.9919052E-1,1.4937265E12,1.3129625E12,-2.958721E-1,5.8E1,1.313745E12,4.626966E-2,-2.1088503E-1,2.9947746E-1,5.675673E-2],"split_indices":[4,0,5,4,0,38,4,0,0,0,0],"split_type":[0,0,0,0,0,0,0,0,0,0,0],"sum_hessian":[6.250722E2,2.6971704E2,3.5535513E2,2.8849417E2,6.686095E1,8.319176E0,2.8017502E2,6.3745356E0,1.9446404E0,2.7481436E2,5.3606386E0],"tree_param":{"num_deleted":"0","num_feature":"58","num_nodes":"11","size_leaf_vector":"1"}},{"base_weights":[-9.786026E-2,-2.987292E-1,5.7614225E-1,9.356666E-1,-2.9430684E-1,-9.4179764E-2,9.757947E-1,-7.78645E-2,1.6771097E-1,2.989575E-1,3.5863504E-2],"categories":[],"categories_nodes":[],"categories_segments":[],"categories_sizes":[],"default_left":[0,0,0,0,0,0,0,0,0,0,0],"id":20,"left_children":[1,-1,3,5,-1,7,9,-1,-1,-1,-1],"loss_changes":[2.8385974E2,0E0,1.5096503E2,9.1115265E0,0E0,1.1278129E0,3.6112366E0,0E0,0E0,0E0,0E0],"parents":[2147483647,0,0,2,2,3,3,5,5,6,6],"right_children":[2,-1,4,6,-1,8,10,-1,-1,-1,-1],"split_conditions":[7.8888824E7,-2.987292E-1,1.4937265E12,1.3129625E12,-2.9430684E-1,2.078E3,2.00001E0,-7.78645E-2,1.6771097E-1,2.989575E-1,3.5863504E-2],"split_indices":[4,0,5,4,0,36,37,0,0,0,0],"split_type":[0,0,0,0,0,0,0,0,0,0,0],"sum_hessian":[4.6709485E2,2.0007639E2,2.6701843E2,2.1725653E2,4.9761917E1,8.097415E0,2.091591E2,6.9425077E0,1.1549077E0,2.0405501E2,5.104102E0],"tree_param":{"num_deleted":"0","num_feature":"58","num_nodes":"11","size_leaf_vector":"1"}},{"base_weights":[-9.701556E-2,-2.9815665E-1,5.658544E-1,9.4312865E-1,-8.7083125E-1,-6.1823983E-2,2.98362E-1,7.0841087E-4,-2.9228413E-1,6.327277E-2,-1.524713E-1,2.1101253E-1,-2.2371335E-1],"categories":[],"categories_nodes":[],"categories_segments":[],"categories_sizes":[],"default_left":[0,0,0,0,0,0,0,0,0,0,0,0,0],"id":21,"left_children":[1,-1,3,5,7,9,-1,11,-1,-1,-1,-1,-1],"loss_changes":[2.0912865E2,0E0,1.1050967E2,8.367233E0,3.8423347E0,1.1743832E0,0E0,3.4197874E0,0E0,0E0,0E0,0E0,0E0],"parents":[2147483647,0,0,2,2,3,3,4,4,5,5,7,7],"right_children":[2,-1,4,6,8,10,-1,12,-1,-1,-1,-1,-1],"split_conditions":[7.8888824E7,-2.9815665E-1,1.313745E12,1.3129626E12,1.4937265E12,4.4685E2,2.98362E-1,1E0,-2.9228413E-1,6.327277E-2,-1.524713E-1,2.1101253E-1,-2.2371335E-1],"split_indices":[4,0,4,5,5,8,0,37,0,0,0,0,0],"split_type":[0,0,0,0,0,0,0,0,0,0,0,0,0],"sum_hessian":[3.498333E2,1.4846544E2,2.0136787E2,1.5975871E2,4.160917E1,7.7653003E0,1.5199341E2,4.5202293E0,3.708894E1,5.147823E0,2.6174774E0,2.3580601E0,2.1621695E0],"tree_param":{"num_deleted":"0","num_feature":"58","num_nodes":"13","size_leaf_vector":"1"}},{"base_weights":[-9.7072296E-2,-2.9742393E-1,5.5423236E-1,9.255968E-1,-8.554546E-1,-5.8364768E-2,2.9759637E-1,-8.703235E-4,-2.8966454E-1,7.5708546E-2,-1.440188E-1,1.9719791E-1,-2.063774E-1],"categories":[],"categories_nodes":[],"categories_segments":[],"categories_sizes":[],"default_left":[0,0,0,0,0,0,0,0,0,0,0,0,0],"id":22,"left_children":[1,-1,3,5,7,9,-1,11,-1,-1,-1,-1,-1],"loss_changes":[1.5379701E2,0E0,8.0821014E1,7.9935074E0,3.0469894E0,1.2510146E0,0E0,2.5766776E0,0E0,0E0,0E0,0E0,0E0],"parents":[2147483647,0,0,2,2,3,3,4,4,5,5,7,7],"right_children":[2,-1,4,6,8,10,-1,12,-1,-1,-1,-1,-1],"split_conditions":[7.8888824E7,-2.9742393E-1,1.313745E12,1.3129625E12,1.4937265E12,8.2E1,2.9759637E-1,1E0,-2.8966454E-1,7.5708546E-2,-1.440188E-1,1.9719791E-1,-2.063774E-1],"split_indices":[4,0,4,4,5,11,0,37,0,0,0,0,0],"split_type":[0,0,0,0,0,0,0,0,0,0,0,0,0],"sum_hessian":[2.620912E2,1.1022003E2,1.5187114E2,1.2047651E2,3.139463E1,7.6227713E0,1.1285374E2,3.6979377E0,2.7696693E1,4.6200566E0,3.0027144E0,1.9107304E0,1.7872072E0],"tree_param":{"num_deleted":"0","num_feature":"58","num_nodes":"13","size_leaf_vector":"1"}},{"base_weights":[-9.7043745E-2,-2.9647017E-1,5.403519E-1,9.0472597E-1,-8.3684415E-1,-5.5012148E-2,2.9664525E-1,-2.1279668E-3,-2.8628564E-1,-1.8256639E-1,4.6653405E-2,1.8344866E-1,-1.9025932E-1],"categories":[],"categories_nodes":[],"categories_segments":[],"categories_sizes":[],"default_left":[0,0,0,0,0,0,0,0,0,0,0,0,0],"id":23,"left_children":[1,-1,3,5,7,9,-1,11,-1,-1,-1,-1,-1],"loss_changes":[1.12957695E2,0E0,5.8984688E1,7.4985123E0,2.4287548E0,1.0709594E0,0E0,1.9627512E0,0E0,0E0,0E0,0E0,0E0],"parents":[2147483647,0,0,2,2,3,3,4,4,5,5,7,7],"right_children":[2,-1,4,6,8,10,-1,12,-1,-1,-1,-1,-1],"split_conditions":[7.8888824E7,-2.9647017E-1,1.313745E12,1.3129626E12,1.4937265E12,6E1,2.9664525E-1,1E0,-2.8628564E-1,-1.8256639E-1,4.6653405E-2,1.8344866E-1,-1.9025932E-1],"split_indices":[4,0,4,5,5,11,0,37,0,0,0,0,0],"split_type":[0,0,0,0,0,0,0,0,0,0,0,0,0],"sum_hessian":[1.9691487E2,8.188082E1,1.1503406E2,9.123774E1,2.3796318E1,7.378027E0,8.385972E1,3.06067E0,2.073565E1,1.5119334E0,5.866093E0,1.5695125E0,1.4911574E0],"tree_param":{"num_deleted":"0","num_feature":"58","num_nodes":"13","size_leaf_vector":"1"}},{"base_weights":[-9.760231E-2,-2.9521862E-1,5.218585E-1,8.4601504E-1,-2.819664E-1,-5.9984315E-2,9.4617385E-1,-1.1351199E-1,1.0020484E-1,2.9540157E-1,-1.111026E-2],"categories":[],"categories_nodes":[],"categories_segments":[],"categories_sizes":[],"default_left":[0,0,0,0,0,0,0,0,0,0,0],"id":24,"left_children":[1,-1,3,5,-1,7,9,-1,-1,-1,-1],"loss_changes":[8.266053E1,0E0,4.2830376E1,6.6934853E0,0E0,1.1576521E0,2.5314941E0,0E0,0E0,0E0,0E0],"parents":[2147483647,0,0,2,2,3,3,5,5,6,6],"right_children":[2,-1,4,6,-1,8,10,-1,-1,-1,-1],"split_conditions":[7.8888824E7,-2.9521862E-1,1.4937265E12,1.3129625E12,-2.819664E-1,4.13E2,2.00001E0,-1.1351199E-1,1.0020484E-1,2.9540157E-1,-1.111026E-2],"split_indices":[4,0,5,4,0,1,37,0,0,0,0],"split_type":[0,0,0,0,0,0,0,0,0,0,0],"sum_hessian":[1.4859558E2,6.0882725E1,8.771286E1,7.213701E1,1.5575852E1,7.220865E0,6.4916145E1,4.015572E0,3.2052925E0,6.2468662E1,2.4474828E0],"tree_param":{"num_deleted":"0","num_feature":"58","num_nodes":"11","size_leaf_vector":"1"}},{"base_weights":[-9.690856E-2,-2.9357317E-1,4.9894196E-1,8.4699637E-1,-8.073028E-1,-4.8061337E-2,2.9381838E-1,-1.0295848E-1,-2.76519E-1,4.5977853E-2,-1.8208447E-1,1.0155946E-1,-1.3744853E-1],"categories":[],"categories_nodes":[],"categories_segments":[],"categories_sizes":[],"default_left":[0,0,0,0,0,0,0,0,0,0,0,0,0],"id":25,"left_children":[1,-1,3,5,7,9,-1,11,-1,-1,-1,-1,-1],"loss_changes":[6.0394363E1,0E0,3.1921488E1,6.534012E0,1.1114426E0,9.9394035E-1,0E0,6.5967584E-1,0E0,0E0,0E0,0E0,0E0],"parents":[2147483647,0,0,2,2,3,3,4,4,5,5,7,7],"right_children":[2,-1,4,6,8,10,-1,12,-1,-1,-1,-1,-1],"split_conditions":[7.8888824E7,-2.9357317E-1,1.313745E12,1.3129626E12,1.4937265E12,5.8E1,2.9381838E-1,3E0,-2.76519E-1,4.5977853E-2,-1.8208447E-1,1.0155946E-1,-1.3744853E-1],"split_indices":[4,0,4,5,5,38,0,49,0,0,0,0,0],"split_type":[0,0,0,0,0,0,0,0,0,0,0,0,0],"sum_hessian":[1.1303245E2,4.532443E1,6.7708015E1,5.3740273E1,1.3967744E1,7.0070686E0,4.6733204E1,2.2175605E0,1.1750183E1,5.6850066E0,1.3220618E0,1.0096189E0,1.2079417E0],"tree_param":{"num_deleted":"0","num_feature":"58","num_nodes":"13","size_leaf_vector":"1"}},{"base_weights":[-9.77447E-2,-2.914149E-1,4.7001302E-1,8.052692E-1,-7.6824725E-1,-5.5094317E-2,2.9170492E-1,2.7427388E-2,-2.578686E-1,-1.7668353E-1,4.5190003E-2],"categories":[],"categories_nodes":[],"categories_segments":[],"categories_sizes":[],"default_left":[0,0,0,0,0,0,0,0,0,0,0],"id":26,"left_children":[1,-1,3,5,7,9,-1,-1,-1,-1,-1],"loss_changes":[4.3863773E1,0E0,2.2917747E1,6.200165E0,1.0171747E0,9.563254E-1,0E0,0E0,0E0,0E0,0E0],"parents":[2147483647,0,0,2,2,3,3,4,4,5,5],"right_children":[2,-1,4,6,8,10,-1,-1,-1,-1,-1],"split_conditions":[7.8888824E7,-2.914149E-1,1.313745E12,1.3129625E12,2E0,6E1,2.9170492E-1,2.7427388E-2,-2.578686E-1,-1.7668353E-1,4.5190003E-2],"split_indices":[4,0,4,4,51,11,0,0,0,0,0],"split_type":[0,0,0,0,0,0,0,0,0,0,0],"sum_hessian":[8.651191E1,3.3796528E1,5.271538E1,4.1758923E1,1.0956457E1,6.899731E0,3.485919E1,1.0519345E0,9.904523E0,1.4011335E0,5.4985976E0],"tree_param":{"num_deleted":"0","num_feature":"58","num_nodes":"11","size_leaf_vector":"1"}},{"base_weights":[-9.736349E-2,-2.886004E-1,4.368717E-1,7.186815E-1,-2.625123E-1,-5.9569094E-2,9.0281075E-1,3.5324402E-2,-1.7137355E-1,2.890943E-1,-2.9475076E-2],"categories":[],"categories_nodes":[],"categories_segments":[],"categories_sizes":[],"default_left":[0,0,0,0,0,0,0,0,0,0,0],"id":27,"left_children":[1,-1,3,5,-1,7,9,-1,-1,-1,-1],"loss_changes":[3.1797886E1,0E0,1.640593E1,5.1663E0,0E0,7.7169514E-1,1.8555336E0,0E0,0E0,0E0,0E0],"parents":[2147483647,0,0,2,2,3,3,5,5,6,6],"right_children":[2,-1,4,6,-1,8,10,-1,-1,-1,-1],"split_conditions":[7.8888824E7,-2.886004E-1,1.4937265E12,1.3129626E12,-2.625123E-1,5.8E1,2.00001E0,3.5324402E-2,-1.7137355E-1,2.890943E-1,-2.9475076E-2],"split_indices":[4,0,5,5,0,38,37,0,0,0,0],"split_type":[0,0,0,0,0,0,0,0,0,0,0],"sum_hessian":[6.6928696E1,2.5254543E1,4.167415E1,3.4677353E1,6.996798E0,6.7641425E0,2.791321E1,5.5950885E0,1.1690539E0,2.6349276E1,1.5639344E0],"tree_param":{"num_deleted":"0","num_feature":"58","num_nodes":"11","size_leaf_vector":"1"}},{"base_weights":[-9.849346E-2,-2.8496304E-1,3.9812973E-1,7.023028E-1,-6.9459575E-1,-6.290508E-2,2.8554988E-1,-1.8835723E-2,-2.530102E-1,-1.6615838E-1,3.473702E-2],"categories":[],"categories_nodes":[],"categories_segments":[],"categories_sizes":[],"default_left":[0,0,0,0,0,0,0,0,0,0,0],"id":28,"left_children":[1,-1,3,5,7,9,-1,-1,-1,-1,-1],"loss_changes":[2.2905872E1,0E0,1.1906864E1,5.2863474E0,6.9747543E-1,7.369392E-1,0E0,0E0,0E0,0E0,0E0],"parents":[2147483647,0,0,2,2,3,3,4,4,5,5],"right_children":[2,-1,4,6,8,10,-1,-1,-1,-1,-1],"split_conditions":[7.8888824E7,-2.8496304E-1,1.313745E12,1.3129625E12,1.4937265E12,6E1,2.8554988E-1,-1.8835723E-2,-2.530102E-1,-1.6615838E-1,3.473702E-2],"split_indices":[4,0,4,4,5,11,0,0,0,0,0],"split_type":[0,0,0,0,0,0,0,0,0,0,0],"sum_hessian":[5.228006E1,1.8924416E1,3.3355644E1,2.6371983E1,6.98366E0,6.668942E0,1.9703041E1,1.602046E0,5.381614E0,1.2193531E0,5.449589E0],"tree_param":{"num_deleted":"0","num_feature":"58","num_nodes":"11","size_leaf_vector":"1"}},{"base_weights":[-9.959883E-2,-2.8032E-1,3.557251E-1,6.404402E-1,-6.360754E-1,-6.472514E-2,2.810629E-1,-1.5369571E-2,-2.4208613E-1,-8.457507E-2,1.130941E-1],"categories":[],"categories_nodes":[],"categories_segments":[],"categories_sizes":[],"default_left":[0,0,0,0,0,0,0,0,0,0,0],"id":29,"left_children":[1,-1,3,5,7,9,-1,-1,-1,-1,-1],"loss_changes":[1.6440752E1,0E0,8.355329E0,4.7361145E0,6.3617945E-1,8.310741E-1,0E0,0E0,0E0,0E0,0E0],"parents":[2147483647,0,0,2,2,3,3,4,4,5,5],"right_children":[2,-1,4,6,8,10,-1,-1,-1,-1,-1],"split_conditions":[7.8888824E7,-2.8032E-1,1.313745E12,1.3129626E12,1.4937265E12,1E1,2.810629E-1,-1.5369571E-2,-2.4208613E-1,-8.457507E-2,1.130941E-1],"split_indices":[4,0,4,5,5,12,0,0,0,0,0],"split_type":[0,0,0,0,0,0,0,0,0,0,0],"sum_hessian":[4.1378727E1,1.4232457E1,2.7146269E1,2.1366793E1,5.779477E0,6.555101E0,1.481169E1,1.600718E0,4.178759E0,4.6368575E0,1.9182438E0],"tree_param":{"num_deleted":"0","num_feature":"58","num_nodes":"11","size_leaf_vector":"1"}},{"base_weights":[-9.5844544E-2,-2.744866E-1,3.1773183E-1,5.8288926E-1,-5.763464E-1,-4.507357E-2,2.7541876E-1,-1.2534162E-2,-2.2992374E-1,5.4209895E-2,-1.2872922E-1],"categories":[],"categories_nodes":[],"categories_segments":[],"categories_sizes":[],"default_left":[0,0,0,0,0,0,0,0,0,0,0],"id":30,"left_children":[1,-1,3,5,7,9,-1,-1,-1,-1,-1],"loss_changes":[1.1898039E1,0E0,5.909539E0,3.9625049E0,5.654459E-1,7.222904E-1,0E0,0E0,0E0,0E0,0E0],"parents":[2147483647,0,0,2,2,3,3,4,4,5,5],"right_children":[2,-1,4,6,8,10,-1,-1,-1,-1,-1],"split_conditions":[7.8888824E7,-2.744866E-1,1.313745E12,1.3129625E12,1.4937265E12,4.4685E2,2.7541876E-1,-1.2534162E-2,-2.2992374E-1,5.4209895E-2,-1.2872922E-1],"split_indices":[4,0,4,4,5,8,0,0,0,0,0],"split_type":[0,0,0,0,0,0,0,0,0,0,0],"sum_hessian":[3.3263676E1,1.0753492E1,2.2510181E1,1.7629766E1,4.880416E0,6.436396E0,1.119337E1,1.6000509E0,3.2803652E0,4.3867936E0,2.0496025E0],"tree_param":{"num_deleted":"0","num_feature":"58","num_nodes":"11","size_leaf_vector":"1"}},{"base_weights":[-9.542297E-2,-2.673013E-1,2.7281204E-1,4.627304E-1,-2.168278E-1,-1.0633833E-2,2.6249087E-1,-7.270682E-2,2.1993704E-1],"categories":[],"categories_nodes":[],"categories_segments":[],"categories_sizes":[],"default_left":[0,0,0,0,0,0,0,0,0],"id":31,"left_children":[1,-1,3,5,-1,7,-1,-1,-1],"loss_changes":[8.518858E0,0E0,4.1304255E0,3.4183383E0,0E0,1.7494599E0,0E0,0E0,0E0],"parents":[2147483647,0,0,2,2,3,3,5,5],"right_children":[2,-1,4,6,-1,8,-1,-1,-1],"split_conditions":[7.8888824E7,-2.673013E-1,1.4937265E12,1.312964E12,-2.168278E-1,5.9E3,2.6249087E-1,-7.270682E-2,2.1993704E-1],"split_indices":[4,0,5,23,0,36,0,0,0],"split_type":[0,0,0,0,0,0,0,0,0],"sum_hessian":[2.724876E1,8.172405E0,1.9076355E1,1.6469746E1,2.60661E0,8.119977E0,8.349769E0,6.705106E0,1.4148712E0],"tree_param":{"num_deleted":"0","num_feature":"58","num_nodes":"9","size_leaf_vector":"1"}},{"base_weights":[-8.52853E-2,-2.586586E-1,2.4578454E-1,4.7879595E-1,-5.172456E-1,-1.1734359E-2,2.6091304E-1,-2.9865155E-2,-2.0318632E-1,-9.030003E-2,9.860041E-2],"categories":[],"categories_nodes":[],"categories_segments":[],"categories_sizes":[],"default_left":[0,0,0,0,0,0,0,0,0,0,0],"id":32,"left_children":[1,-1,3,5,7,9,-1,-1,-1,-1,-1],"loss_changes":[6.266578E0,0E0,3.3206677E0,2.6487505E0,2.3500514E-1,7.969727E-1,0E0,0E0,0E0,0E0,0E0],"parents":[2147483647,0,0,2,2,3,3,4,4,5,5],"right_children":[2,-1,4,6,8,10,-1,-1,-1,-1,-1],"split_conditions":[7.8888824E7,-2.586586E-1,1.313745E12,1.3129626E12,1.4937265E12,4.13E2,2.6091304E-1,-2.9865155E-2,-2.0318632E-1,-9.030003E-2,9.860041E-2],"split_indices":[4,0,4,5,5,1,0,0,0,0,0],"split_type":[0,0,0,0,0,0,0,0,0,0,0],"sum_hessian":[2.2539639E1,6.255592E0,1.6284046E1,1.2759963E1,3.5240843E0,6.0891304E0,6.6708326E0,1.4255521E0,2.0985322E0,3.3543968E0,2.7347333E0],"tree_param":{"num_deleted":"0","num_feature":"58","num_nodes":"11","size_leaf_vector":"1"}},{"base_weights":[-8.272195E-2,-3.2470664E-1,2.4376968E-1,-7.114136E-1,1.0650489E-1,3.8718062E-3,-2.5026917E-1,3.625629E-1,-1.8602495E-1,-3.9034765E-3,2.0480287E-1],"categories":[],"categories_nodes":[],"categories_segments":[],"categories_sizes":[],"default_left":[0,0,0,0,0,0,0,0,0,0,0],"id":33,"left_children":[1,3,-1,5,7,-1,-1,9,-1,-1,-1],"loss_changes":[4.616142E0,2.8320832E0,0E0,7.9757166E-1,1.8406101E0,0E0,0E0,8.5680705E-1,0E0,0E0,0E0],"parents":[2147483647,0,0,1,1,3,3,4,4,7,7],"right_children":[2,4,-1,6,8,-1,-1,10,-1,-1,-1],"split_conditions":[5.9E3,7.988041E7,2.4376968E-1,7.9E1,1.4937265E12,3.8718062E-3,-2.5026917E-1,1.3129625E12,-1.8602495E-1,-3.9034765E-3,2.0480287E-1],"split_indices":[36,22,0,7,5,0,0,4,0,0,0],"split_type":[0,0,0,0,0,0,0,0,0,0,0],"sum_hessian":[1.908945E1,1.5529376E1,3.5600746E0,7.8446E0,7.6847754E0,1.267046E0,6.577554E0,6.0527296E0,1.6320455E0,3.226535E0,2.8261945E0],"tree_param":{"num_deleted":"0","num_feature":"58","num_nodes":"11","size_leaf_vector":"1"}},{"base_weights":[-7.1270235E-2,-2.3777357E-1,1.9162306E-1,3.922596E-1,-4.5234215E-1,9.375963E-3,2.4214478E-1,-2.8899513E-2,-1.7736343E-1,6.611326E-2,-1.1200232E-1],"categories":[],"categories_nodes":[],"categories_segments":[],"categories_sizes":[],"default_left":[0,0,0,0,0,0,0,0,0,0,0],"id":34,"left_children":[1,-1,3,5,7,9,-1,-1,-1,-1,-1],"loss_changes":[3.436029E0,0E0,1.921439E0,1.7123849E0,1.24535024E-1,6.1868805E-1,0E0,0E0,0E0,0E0,0E0],"parents":[2147483647,0,0,2,2,3,3,4,4,5,5],"right_children":[2,-1,4,6,8,10,-1,-1,-1,-1,-1],"split_conditions":[7.8888824E7,-2.3777357E-1,1.313745E12,1.3129625E12,1.4937265E12,6.16E2,2.4214478E-1,-2.8899513E-2,-1.7736343E-1,6.611326E-2,-1.1200232E-1],"split_indices":[4,0,4,4,5,47,0,0,0,0,0],"split_type":[0,0,0,0,0,0,0,0,0,0,0],"sum_hessian":[1.6319004E1,3.8208346E0,1.2498169E1,9.827225E0,2.6709437E0,5.6425548E0,4.1846704E0,1.224768E0,1.4461756E0,3.9106762E0,1.7318784E0],"tree_param":{"num_deleted":"0","num_feature":"58","num_nodes":"11","size_leaf_vector":"1"}},{"base_weights":[-7.360382E-2,-2.825041E-1,2.1404114E-1,-6.199709E-1,6.6142924E-2,1.7893284E-4,-2.2850001E-1,1.7181523E-1,-2.3812477E-1,-1.4195698E-1,9.276544E-2],"categories":[],"categories_nodes":[],"categories_segments":[],"categories_sizes":[],"default_left":[0,0,0,0,0,0,0,0,0,0,0],"id":35,"left_children":[1,3,-1,5,7,-1,-1,-1,9,-1,-1],"loss_changes":[2.7253742E0,1.5524989E0,0E0,5.829475E-1,1.2495728E0,0E0,0E0,0E0,8.1772816E-1,0E0,0E0],"parents":[2147483647,0,0,1,1,3,3,4,4,8,8],"right_children":[2,4,-1,6,8,-1,-1,-1,10,-1,-1],"split_conditions":[5.9E3,7.988041E7,2.1404114E-1,7.9E1,3E0,1.7893284E-4,-2.2850001E-1,1.7181523E-1,5.0002365E2,-1.4195698E-1,9.276544E-2],"split_indices":[36,22,0,7,6,0,0,0,16,0,0],"split_type":[0,0,0,0,0,0,0,0,0,0,0],"sum_hessian":[1.4349805E1,1.1846621E1,2.5031848E0,5.6243806E0,6.22224E0,1.2306119E0,4.393769E0,2.003814E0,4.2184258E0,3.0458255E0,1.1726005E0],"tree_param":{"num_deleted":"0","num_feature":"58","num_nodes":"11","size_leaf_vector":"1"}},{"base_weights":[-5.3338286E-2,-2.1281736E-1,1.5184817E-1,3.2690606E-1,-3.902718E-1,6.138126E-3,2.2354777E-1,-1.9021286E-2,-1.5838856E-1,-8.8134184E-2,1.03185765E-1],"categories":[],"categories_nodes":[],"categories_segments":[],"categories_sizes":[],"default_left":[0,0,0,0,0,0,0,0,0,0,0],"id":36,"left_children":[1,-1,3,5,7,9,-1,-1,-1,-1,-1],"loss_changes":[1.9523102E0,0E0,1.1963662E0,1.2105534E0,1.1076048E-1,7.225498E-1,0E0,0E0,0E0,0E0,0E0],"parents":[2147483647,0,0,2,2,3,3,4,4,5,5],"right_children":[2,-1,4,6,8,10,-1,-1,-1,-1,-1],"split_conditions":[7.8888824E7,-2.1281736E-1,1.313745E12,1.3129626E12,1.4937265E12,4.13E2,2.2354777E-1,-1.9021286E-2,-1.5838856E-1,-8.8134184E-2,1.03185765E-1],"split_indices":[4,0,4,5,5,1,0,0,0,0,0],"split_type":[0,0,0,0,0,0,0,0,0,0,0],"sum_hessian":[1.2702898E1,2.4409683E0,1.02619295E1,8.057152E0,2.204778E0,5.134252E0,2.9229E0,1.0863461E0,1.1184318E0,2.7887185E0,2.3455334E0],"tree_param":{"num_deleted":"0","num_feature":"58","num_nodes":"11","size_leaf_vector":"1"}},{"base_weights":[-5.4164693E-2,-2.3574796E-1,1.8771155E-1,-5.197407E-1,3.573854E-2,-2.0764798E-1,3.0309724E-2,1.4409393E-1,-2.166595E-1,-1.2499142E-1,6.949105E-2],"categories":[],"categories_nodes":[],"categories_segments":[],"categories_sizes":[],"default_left":[0,0,0,0,0,0,0,0,0,0,0],"id":37,"left_children":[1,3,-1,5,7,-1,-1,-1,9,-1,-1],"loss_changes":[1.6791729E0,8.295141E-1,0E0,6.2703097E-1,8.1245136E-1,0E0,0E0,0E0,5.192985E-1,0E0,0E0],"parents":[2147483647,0,0,1,1,3,3,4,4,8,8],"right_children":[2,4,-1,6,8,-1,-1,-1,10,-1,-1],"split_conditions":[5.9E3,7.988041E7,1.8771155E-1,3.159E3,3E0,-2.0764798E-1,3.0309724E-2,1.4409393E-1,5.0002365E2,-1.2499142E-1,6.949105E-2],"split_indices":[36,22,0,41,6,0,0,0,16,0,0],"split_type":[0,0,0,0,0,0,0,0,0,0,0],"sum_hessian":[1.1406862E1,9.517992E0,1.8888707E0,4.2049313E0,5.3130603E0,3.2008903E0,1.0040412E0,1.597037E0,3.7160234E0,2.6185467E0,1.0974768E0],"tree_param":{"num_deleted":"0","num_feature":"58","num_nodes":"11","size_leaf_vector":"1"}},{"base_weights":[-3.5612956E-2,-1.8996444E-1,1.3684484E-1,-1.5287282E-1,2.7298498E-1,5.1418996E-1,-2.2761354E-1,2.0959419E-1,-5.4300893E-2,1.6901178E-2,-1.3386813E-1],"categories":[],"categories_nodes":[],"categories_segments":[],"categories_sizes":[],"default_left":[0,0,0,0,0,0,0,0,0,0,0],"id":38,"left_children":[1,-1,3,-1,5,7,9,-1,-1,-1,-1],"loss_changes":[1.2595123E0,0E0,9.886855E-1,0E0,1.1585493E0,9.122368E-1,2.4227056E-1,0E0,0E0,0E0,0E0],"parents":[2147483647,0,0,2,2,4,4,5,5,6,6],"right_children":[2,-1,4,-1,6,8,10,-1,-1,-1,-1],"split_conditions":[7.8888824E7,-1.8996444E-1,6E1,-1.5287282E-1,8.2E1,1.313745E12,1.785E2,2.0959419E-1,-5.4300893E-2,1.6901178E-2,-1.3386813E-1],"split_indices":[4,0,11,0,11,4,9,0,0,0,0],"split_type":[0,0,0,0,0,0,0,0,0,0,0],"sum_hessian":[1.0380242E1,1.7263554E0,8.653887E0,1.0282973E0,7.6255894E0,5.127729E0,2.4978604E0,4.0485487E0,1.0791805E0,1.4094561E0,1.0884043E0],"tree_param":{"num_deleted":"0","num_feature":"58","num_nodes":"11","size_leaf_vector":"1"}},{"base_weights":[-5.752623E-2,-2.1375011E-1,1.5895438E-1,-1.7601725E-1,-6.611271E-2,1.2941746E-1,-1.3899294E-1,-4.9319472E-2,1.8144347E-1],"categories":[],"categories_nodes":[],"categories_segments":[],"categories_sizes":[],"default_left":[0,0,0,0,0,0,0,0,0],"id":39,"left_children":[1,3,-1,-1,5,7,-1,-1,-1],"loss_changes":[1.0736969E0,4.557073E-1,0E0,0E0,6.471458E-1,9.1628796E-1,0E0,0E0,0E0],"parents":[2147483647,0,0,1,1,4,4,5,5],"right_children":[2,4,-1,-1,6,8,-1,-1,-1],"split_conditions":[5.9E3,7.8888824E7,1.5895438E-1,-1.7601725E-1,4.43E2,5.22E2,-1.3899294E-1,-4.9319472E-2,1.8144347E-1],"split_indices":[36,4,0,0,36,40,0,0,0],"split_type":[0,0,0,0,0,0,0,0,0],"sum_hessian":[9.466676E0,7.980259E0,1.4864172E0,1.4196727E0,6.560586E0,4.8481407E0,1.7124453E0,3.400598E0,1.4475428E0],"tree_param":{"num_deleted":"0","num_feature":"58","num_nodes":"9","size_leaf_vector":"1"}},{"base_weights":[-4.7168326E-2,-1.8261023E-1,1.3969249E-1,1.3541591E-1,-3.6781406E-1,-8.515428E-2,1.5328568E-1,-4.739199E-1,1.4278901E-2,-1.9385539E-1,3.8760917E-3],"categories":[],"categories_nodes":[],"categories_segments":[],"categories_sizes":[],"default_left":[0,0,0,0,0,0,0,0,0,0,0],"id":40,"left_children":[1,3,-1,5,7,-1,-1,9,-1,-1,-1],"loss_changes":[7.717372E-1,5.5278265E-1,0E0,7.5494266E-1,2.7229154E-1,0E0,0E0,3.9449286E-1,0E0,0E0,0E0],"parents":[2147483647,0,0,1,1,3,3,4,4,7,7],"right_children":[2,4,-1,6,8,-1,-1,10,-1,-1,-1],"split_conditions":[5.9E3,8.2E1,1.3969249E-1,7.4E1,5.0002365E2,-8.515428E-2,1.5328568E-1,1.3129626E12,1.4278901E-2,-1.9385539E-1,3.8760917E-3],"split_indices":[36,46,0,50,16,0,0,5,0,0,0],"split_type":[0,0,0,0,0,0,0,0,0,0,0],"sum_hessian":[8.886933E0,7.5395193E0,1.3474137E0,2.8737075E0,4.6658115E0,1.4731637E0,1.4005438E0,3.6043313E0,1.0614805E0,2.4205384E0,1.1837927E0],"tree_param":{"num_deleted":"0","num_feature":"58","num_nodes":"11","size_leaf_vector":"1"}},{"base_weights":[-3.408777E-2,-1.588378E-1,9.81942E-2,2.706651E-1,-1.0038104E-1,-4.1884832E-2,4.6948606E-1,2.6011822E-1,1.4661341E-4],"categories":[],"categories_nodes":[],"categories_segments":[],"categories_sizes":[],"default_left":[0,0,0,0,0,0,0,0,0],"id":41,"left_children":[1,-1,3,5,-1,-1,7,-1,-1],"loss_changes":[6.641179E-1,0E0,7.0386153E-1,5.898791E-1,0E0,0E0,8.496306E-1,0E0,0E0],"parents":[2147483647,0,0,2,2,3,3,6,6],"right_children":[2,-1,4,6,-1,-1,8,-1,-1],"split_conditions":[7.8888824E7,-1.588378E-1,1.313745E12,6.4E1,-1.0038104E-1,-4.1884832E-2,8.6E1,2.6011822E-1,1.4661341E-4],"split_indices":[4,0,4,50,0,0,46,0,0],"split_type":[0,0,0,0,0,0,0,0,0],"sum_hessian":[8.34137E0,1.1251994E0,7.21617E0,5.4277954E0,1.7883743E0,1.868922E0,3.5588734E0,1.4667436E0,2.09213E0],"tree_param":{"num_deleted":"0","num_feature":"58","num_nodes":"9","size_leaf_vector":"1"}},{"base_weights":[-2.8291352E-2,-1.4397436E-1,1.1901014E-1,-3.0402166E-1,1.4744797E-1,-5.4013336E-1,4.2068914E-2,1.7731686E-1,-9.328385E-2,-1.8710276E-1,-4.797425E-2],"categories":[],"categories_nodes":[],"categories_segments":[],"categories_sizes":[],"default_left":[0,0,0,0,0,0,0,0,0,0,0],"id":42,"left_children":[1,3,-1,5,7,9,-1,-1,-1,-1,-1],"loss_changes":[4.9055418E-1,4.022656E-1,0E0,6.288843E-1,8.7316555E-1,1.6187906E-2,0E0,0E0,0E0,0E0,0E0],"parents":[2147483647,0,0,1,1,3,3,4,4,5,5],"right_children":[2,4,-1,6,8,10,-1,-1,-1,-1,-1],"split_conditions":[5.9E3,9E0,1.1901014E-1,1.3129625E12,1.44E2,1.4245995E7,4.2068914E-2,1.7731686E-1,-9.328385E-2,-1.8710276E-1,-4.797425E-2],"split_indices":[36,12,0,4,26,23,0,0,0,0,0],"split_type":[0,0,0,0,0,0,0,0,0,0,0],"sum_hessian":[7.816138E0,6.6635466E0,1.1525909E0,4.2733927E0,2.390154E0,2.6494362E0,1.6239567E0,1.0675919E0,1.3225619E0,1.6472033E0,1.0022329E0],"tree_param":{"num_deleted":"0","num_feature":"58","num_nodes":"11","size_leaf_vector":"1"}},{"base_weights":[-2.272571E-2,1.8535143E-1,-2.53863E-1,-5.815566E-2,3.3429945E-1,2.1376256E-2,-3.734628E-1,1.9069842E-1,-1.2037898E-2,-3.1572748E-2,-1.3298272E-1],"categories":[],"categories_nodes":[],"categories_segments":[],"categories_sizes":[],"default_left":[0,0,0,0,0,0,0,0,0,0,0],"id":43,"left_children":[1,3,5,-1,7,-1,9,-1,-1,-1,-1],"loss_changes":[4.5000002E-1,3.4648162E-1,1.9735733E-1,0E0,4.7095102E-1,0E0,1.6461372E-2,0E0,0E0,0E0,0E0],"parents":[2147483647,0,0,1,1,2,2,4,4,6,6],"right_children":[2,4,6,-1,8,-1,10,-1,-1,-1,-1],"split_conditions":[1.505E2,6.9E1,4.189E4,-5.815566E-2,8.2E1,2.1376256E-2,9.5E1,1.9069842E-1,-1.2037898E-2,-3.1572748E-2,-1.3298272E-1],"split_indices":[9,48,57,0,46,0,48,0,0,0,0],"split_type":[0,0,0,0,0,0,0,0,0,0,0],"sum_hessian":[7.378237E0,3.9870536E0,3.3911831E0,1.0393977E0,2.947656E0,1.0207175E0,2.3704658E0,1.2466086E0,1.7010473E0,1.0074291E0,1.3630365E0],"tree_param":{"num_deleted":"0","num_feature":"58","num_nodes":"11","size_leaf_vector":"1"}},{"base_weights":[-1.9129446E-2,1.6714838E-1,-2.1365124E-1,3.0680883E-1,-5.096061E-2,-3.2227877E-1,2.3620054E-2,-2.3568954E-2,2.0143719E-1,-1.2312861E-1,-3.0580532E-2],"categories":[],"categories_nodes":[],"categories_segments":[],"categories_sizes":[],"default_left":[0,0,0,0,0,0,0,0,0,0,0],"id":44,"left_children":[1,3,5,7,-1,9,-1,-1,-1,-1,-1],"loss_changes":[3.3045477E-1,2.7409938E-1,1.6569401E-1,5.713994E-1,0E0,2.4543196E-2,0E0,0E0,0E0,0E0,0E0],"parents":[2147483647,0,0,1,1,2,2,3,3,5,5],"right_children":[2,4,6,8,-1,10,-1,-1,-1,-1,-1],"split_conditions":[1.415E2,1E0,5.0002365E2,9E1,-5.096061E-2,1.3129625E12,2.3620054E-2,-2.3568954E-2,2.0143719E-1,-1.2312861E-1,-3.0580532E-2],"split_indices":[9,49,16,40,0,4,0,0,0,0,0],"split_type":[0,0,0,0,0,0,0,0,0,0,0],"sum_hessian":[7.1341944E0,3.7162056E0,3.4179885E0,2.6907773E0,1.0254284E0,2.417566E0,1.0004224E0,1.6896514E0,1.0011259E0,1.1105918E0,1.3069744E0],"tree_param":{"num_deleted":"0","num_feature":"58","num_nodes":"11","size_leaf_vector":"1"}},{"base_weights":[-1.4535544E-2,1.0979834E-1,-9.067817E-2,-1.2452263E-1,1.7026454E-1,-3.3156705E-1,5.99973E-2,-3.1508017E-2,-1.2506582E-1],"categories":[],"categories_nodes":[],"categories_segments":[],"categories_sizes":[],"default_left":[0,0,0,0,0,0,0,0,0],"id":45,"left_children":[1,3,-1,5,-1,7,-1,-1,-1],"loss_changes":[3.1820214E-1,7.460544E-1,0E0,4.0123343E-1,0E0,2.2307366E-2,0E0,0E0,0E0],"parents":[2147483647,0,0,1,1,3,3,5,5],"right_children":[2,4,-1,6,-1,8,-1,-1,-1],"split_conditions":[1.313745E12,1.3129626E12,-9.067817E-2,5.22E2,1.7026454E-1,3E0,5.99973E-2,-3.1508017E-2,-1.2506582E-1],"split_indices":[4,5,0,40,0,2,0,0,0],"split_type":[0,0,0,0,0,0,0,0,0],"sum_hessian":[6.96709E0,5.2966523E0,1.6704377E0,3.9848087E0,1.3118439E0,2.419437E0,1.5653716E0,1.2722713E0,1.1471657E0],"tree_param":{"num_deleted":"0","num_feature":"58","num_nodes":"9","size_leaf_vector":"1"}},{"base_weights":[-1.21868495E-2,2.1136339E-1,-1.6361319E-1,-3.9935555E-2,1.2358773E-1,-9.950071E-2,1.6180148E-2,-9.218289E-2,8.325387E-2],"categories":[],"categories_nodes":[],"categories_segments":[],"categories_sizes":[],"default_left":[0,0,0,0,0,0,0,0,0],"id":46,"left_children":[1,3,5,-1,-1,-1,7,-1,-1],"loss_changes":[2.9225922E-1,2.974053E-1,1.5951702E-1,0E0,0E0,0E0,3.7421936E-1,0E0,0E0],"parents":[2147483647,0,0,1,1,2,2,6,6],"right_children":[2,4,6,-1,-1,-1,8,-1,-1],"split_conditions":[8.2E1,7.2E1,6E1,-3.9935555E-2,1.2358773E-1,-9.950071E-2,1.22E2,-9.218289E-2,8.325387E-2],"split_indices":[46,48,29,0,0,0,46,0,0],"split_type":[0,0,0,0,0,0,0,0,0],"sum_hessian":[6.6120157E0,2.5102801E0,4.1017356E0,1.0476097E0,1.4626706E0,1.6834569E0,2.4182787E0,1.002125E0,1.4161538E0],"tree_param":{"num_deleted":"0","num_feature":"58","num_nodes":"9","size_leaf_vector":"1"}},{"base_weights":[-1.2227543E-2,1.7956877E-1,-1.982922E-1,-2.2214193E-2,1.0518823E-1,-1.1901293E-2,-1.1243764E-1,-2.8051017E-2,2.3645021E-2],"categories":[],"categories_nodes":[],"categories_segments":[],"categories_sizes":[],"default_left":[0,0,0,0,0,0,0,0,0],"id":47,"left_children":[1,3,5,-1,-1,7,-1,-1,-1],"loss_changes":[3.0039507E-1,2.072362E-1,1.3507351E-1,0E0,0E0,3.0286428E-2,0E0,0E0,0E0],"parents":[2147483647,0,0,1,1,2,2,5,5],"right_children":[2,4,6,-1,-1,8,-1,-1,-1],"split_conditions":[2.04E2,9E1,1.313745E12,-2.2214193E-2,1.0518823E-1,7.53E2,-1.1243764E-1,-2.8051017E-2,2.3645021E-2],"split_indices":[7,40,4,0,0,20,0,0,0],"split_type":[0,0,0,0,0,0,0,0,0],"sum_hessian":[6.4198327E0,3.1784172E0,3.2414155E0,1.5087007E0,1.6697165E0,2.0957015E0,1.1457142E0,1.0871193E0,1.0085821E0],"tree_param":{"num_deleted":"0","num_feature":"58","num_nodes":"9","size_leaf_vector":"1"}},{"base_weights":[-1.37306E-2,1.4936621E-1,-1.9209856E-1,2.927856E-1,-5.005917E-2,2.8372927E-2,-9.670966E-2,-2.128443E-2,1.4806858E-1],"categories":[],"categories_nodes":[],"categories_segments":[],"categories_sizes":[],"default_left":[0,0,0,0,0,0,0,0,0],"id":48,"left_children":[1,3,5,7,-1,-1,-1,-1,-1],"loss_changes":[2.4185722E-1,2.4796364E-1,1.7752363E-1,2.8210074E-1,0E0,0E0,0E0,0E0,0E0],"parents":[2147483647,0,0,1,1,2,2,3,3],"right_children":[2,4,6,8,-1,-1,-1,-1,-1],"split_conditions":[4.9225E4,1.3135934E12,1.7E1,8E1,-5.005917E-2,2.8372927E-2,-9.670966E-2,-2.128443E-2,1.4806858E-1],"split_indices":[57,4,8,57,0,0,0,0,0],"split_type":[0,0,0,0,0,0,0,0,0],"sum_hessian":[6.3274336E0,3.3901393E0,2.9372945E0,2.3833566E0,1.0067828E0,1.0033123E0,1.9339821E0,1.0776597E0,1.3056968E0],"tree_param":{"num_deleted":"0","num_feature":"58","num_nodes":"9","size_leaf_vector":"1"}},{"base_weights":[-8.426271E-3,1.3661726E-1,-1.7693019E-1,3.293035E-1,-6.939179E-2,5.225629E-2,-1.219087E-1,-3.0485643E-2,1.8294907E-1],"categories":[],"categories_nodes":[],"categories_segments":[],"categories_sizes":[],"default_left":[0,0,0,0,0,0,0,0,0],"id":49,"left_children":[1,3,5,7,-1,-1,-1,-1,-1],"loss_changes":[1.9701515E-1,3.856123E-1,3.6942357E-1,4.5813882E-1,0E0,0E0,0E0,0E0,0E0],"parents":[2147483647,0,0,1,1,2,2,3,3],"right_children":[2,4,6,8,-1,-1,-1,-1,-1],"split_conditions":[7.5E1,9.4E2,3E0,7.35E1,-6.939179E-2,5.225629E-2,-1.219087E-1,-3.0485643E-2,1.8294907E-1],"split_indices":[11,40,2,48,0,0,0,0,0],"split_type":[0,0,0,0,0,0,0,0,0],"sum_hessian":[6.0720367E0,3.3648772E0,2.7071595E0,2.277229E0,1.0876482E0,1.1650226E0,1.5421368E0,1.1493888E0,1.1278404E0],"tree_param":{"num_deleted":"0","num_feature":"58","num_nodes":"9","size_leaf_vector":"1"}},{"base_weights":[-4.25344E-3,1.758764E-1,-1.3333352E-1,-2.6013665E-2,1.06754005E-1,-2.362095E-1,3.4412306E-2,5.022891E-3,-1.0391518E-1],"categories":[],"categories_nodes":[],"categories_segments":[],"categories_sizes":[],"default_left":[0,0,0,0,0,0,0,0,0],"id":50,"left_children":[1,3,5,-1,-1,7,-1,-1,-1],"loss_changes":[1.8288888E-1,1.8651359E-1,1.4354315E-1,0E0,0E0,1.04803845E-1,0E0,0E0,0E0],"parents":[2147483647,0,0,1,1,2,2,5,5],"right_children":[2,4,6,-1,-1,8,-1,-1,-1],"split_conditions":[8.2E1,7.4E1,1.312964E12,-2.6013665E-2,1.06754005E-1,1.7E1,3.4412306E-2,5.022891E-3,-1.0391518E-1],"split_indices":[46,50,23,0,0,38,0,0,0],"split_type":[0,0,0,0,0,0,0,0,0],"sum_hessian":[5.857231E0,2.2937672E0,3.563464E0,1.1435043E0,1.150263E0,2.5525043E0,1.0109597E0,1.0317388E0,1.5207655E0],"tree_param":{"num_deleted":"0","num_feature":"58","num_nodes":"9","size_leaf_vector":"1"}},{"base_weights":[-1.430938E-3,1.5608549E-1,-1.4906073E-1,-2.4428228E-2,9.450626E-2,3.7361003E-2,-8.49686E-2],"categories":[],"categories_nodes":[],"categories_segments":[],"categories_sizes":[],"default_left":[0,0,0,0,0,0,0],"id":51,"left_children":[1,3,5,-1,-1,-1,-1],"loss_changes":[1.8026014E-1,1.6738959E-1,1.8197566E-1,0E0,0E0,0E0,0E0],"parents":[2147483647,0,0,1,1,2,2],"right_children":[2,4,6,-1,-1,-1,-1],"split_conditions":[4.2267E4,1.048E3,1.5E1,-2.4428228E-2,9.450626E-2,3.7361003E-2,-8.49686E-2],"split_indices":[57,57,8,0,0,0,0],"split_type":[0,0,0,0,0,0,0],"sum_hessian":[5.751231E0,2.7547362E0,2.9964952E0,1.2998741E0,1.4548621E0,1.0095631E0,1.9869322E0],"tree_param":{"num_deleted":"0","num_feature":"58","num_nodes":"7","size_leaf_vector":"1"}},{"base_weights":[2.0166938E-3,1.4823797E-1,-1.451676E-1,-2.5231065E-2,8.963022E-2,2.300104E-3,-8.5800424E-2],"categories":[],"categories_nodes":[],"categories_segments":[],"categories_sizes":[],"default_left":[0,0,0,0,0,0,0],"id":52,"left_children":[1,3,5,-1,-1,-1,-1],"loss_changes":[1.6353767E-1,1.5820621E-1,8.385285E-2,0E0,0E0,0E0,0E0],"parents":[2147483647,0,0,1,1,2,2],"right_children":[2,4,6,-1,-1,-1,-1],"split_conditions":[2.04E2,9E1,1.3136613E12,-2.5231065E-2,8.963022E-2,2.300104E-3,-8.5800424E-2],"split_indices":[7,40,4,0,0,0,0],"split_type":[0,0,0,0,0,0,0],"sum_hessian":[5.5989113E0,2.8050528E0,2.7938585E0,1.2763278E0,1.528725E0,1.7933034E0,1.0005552E0],"tree_param":{"num_deleted":"0","num_feature":"58","num_nodes":"7","size_leaf_vector":"1"}},{"base_weights":[-1.3837207E-3,1.2289194E-1,-1.5143783E-1,2.7795202E-1,-5.4465957E-2,4.3652516E-2,-1.0271142E-1,-2.3110855E-2,1.5230462E-1],"categories":[],"categories_nodes":[],"categories_segments":[],"categories_sizes":[],"default_left":[0,0,0,0,0,0,0,0,0],"id":53,"left_children":[1,3,5,7,-1,-1,-1,-1,-1],"loss_changes":[1.4075491E-1,2.4565402E-1,2.434502E-1,2.947404E-1,0E0,0E0,0E0,0E0,0E0],"parents":[2147483647,0,0,1,1,2,2,3,3],"right_children":[2,4,6,8,-1,-1,-1,-1,-1],"split_conditions":[7.5E1,9.4E2,3E0,7.35E1,-5.4465957E-2,4.3652516E-2,-1.0271142E-1,-2.3110855E-2,1.5230462E-1],"split_indices":[11,40,2,48,0,0,0,0,0],"split_type":[0,0,0,0,0,0,0,0,0],"sum_hessian":[5.549976E0,3.134763E0,2.4152126E0,2.1345928E0,1.0001704E0,1.0383097E0,1.3769029E0,1.0998013E0,1.0347915E0],"tree_param":{"num_deleted":"0","num_feature":"58","num_nodes":"9","size_leaf_vector":"1"}},{"base_weights":[1.2082903E-3,-1.2949404E-1,1.6625088E-1,-9.9034704E-2,3.3412434E-2,1.0590726E-1,-3.7107043E-2],"categories":[],"categories_nodes":[],"categories_segments":[],"categories_sizes":[],"default_left":[0,0,0,0,0,0,0],"id":54,"left_children":[1,3,5,-1,-1,-1,-1],"loss_changes":[1.5981427E-1,2.3680748E-1,2.2079936E-1,0E0,0E0,0E0,0E0],"parents":[2147483647,0,0,1,1,2,2],"right_children":[2,4,6,-1,-1,-1,-1],"split_conditions":[1.3129626E12,4.28E2,1.3137436E12,-9.9034704E-2,3.3412434E-2,1.0590726E-1,-3.7107043E-2],"split_indices":[5,1,22,0,0,0,0],"split_type":[0,0,0,0,0,0,0],"sum_hessian":[5.410592E0,3.13962E0,2.2709718E0,1.510768E0,1.628852E0,1.2488921E0,1.0220798E0],"tree_param":{"num_deleted":"0","num_feature":"58","num_nodes":"7","size_leaf_vector":"1"}},{"base_weights":[1.2584288E-3,1.0456006E-1,-5.4716848E-2,8.692715E-2,-2.8027067E-2],"categories":[],"categories_nodes":[],"categories_segments":[],"categories_sizes":[],"default_left":[0,0,0,0,0],"id":55,"left_children":[1,3,-1,-1,-1],"loss_changes":[1.3761804E-1,1.9701228E-1,0E0,0E0,0E0],"parents":[2147483647,0,0,1,1],"right_children":[2,4,-1,-1,-1],"split_conditions":[5.0444443E1,7.5E1,-5.4716848E-2,8.692715E-2,-2.8027067E-2],"split_indices":[26,11,0,0,0],"split_type":[0,0,0,0,0],"sum_hessian":[5.248831E0,3.6348715E0,1.6139596E0,1.6385779E0,1.9962934E0],"tree_param":{"num_deleted":"0","num_feature":"58","num_nodes":"5","size_leaf_vector":"1"}},{"base_weights":[1.5371258E-3,-1.4623815E-1,1.194924E-1,1.1442684E-2,-7.689386E-2,8.9812204E-2,-1.4952152E-2],"categories":[],"categories_nodes":[],"categories_segments":[],"categories_sizes":[],"default_left":[0,0,0,0,0,0,0],"id":56,"left_children":[1,3,5,-1,-1,-1,-1],"loss_changes":[1.2572832E-1,7.485313E-2,1.3688314E-1,0E0,0E0,0E0,0E0],"parents":[2147483647,0,0,1,1,2,2],"right_children":[2,4,6,-1,-1,-1,-1],"split_conditions":[7.988041E7,1.7E1,9.3761444E-1,1.1442684E-2,-7.689386E-2,8.9812204E-2,-1.4952152E-2],"split_indices":[22,38,15,0,0,0,0],"split_type":[0,0,0,0,0,0,0],"sum_hessian":[5.210474E0,2.2064455E0,3.0040283E0,1.0691144E0,1.1373311E0,1.0842612E0,1.9197671E0],"tree_param":{"num_deleted":"0","num_feature":"58","num_nodes":"7","size_leaf_vector":"1"}},{"base_weights":[2.7366912E-3,-1.1178991E-1,1.491325E-1,-9.498628E-2,2.3830071E-2,9.229277E-2,-2.7723135E-2],"categories":[],"categories_nodes":[],"categories_segments":[],"categories_sizes":[],"default_left":[0,0,0,0,0,0,0],"id":57,"left_children":[1,3,5,-1,-1,-1,-1],"loss_changes":[1.1923287E-1,1.819695E-1,1.4763352E-1,0E0,0E0,0E0,0E0],"parents":[2147483647,0,0,1,1,2,2],"right_children":[2,4,6,-1,-1,-1,-1],"split_conditions":[1.3129626E12,1.07E2,1.3136627E12,-9.498628E-2,2.3830071E-2,9.229277E-2,-2.7723135E-2],"split_indices":[5,40,22,0,0,0,0],"split_type":[0,0,0,0,0,0,0],"sum_hessian":[5.117144E0,3.0037065E0,2.1134374E0,1.1336365E0,1.8700701E0,1.1108186E0,1.0026189E0],"tree_param":{"num_deleted":"0","num_feature":"58","num_nodes":"7","size_leaf_vector":"1"}},{"base_weights":[8.884806E-4,1.3354537E-1,-1.3244312E-1,-1.6262185E-2,7.157128E-2,-6.707552E-2,-1.1920965E-3],"categories":[],"categories_nodes":[],"categories_segments":[],"categories_sizes":[],"default_left":[0,0,0,0,0,0,0],"id":58,"left_children":[1,3,5,-1,-1,-1,-1],"loss_changes":[1.23917E-1,8.211645E-2,4.0062957E-2,0E0,0E0,0E0,0E0],"parents":[2147483647,0,0,1,1,2,2],"right_children":[2,4,6,-1,-1,-1,-1],"split_conditions":[2.12E2,9E1,3E0,-1.6262185E-2,7.157128E-2,-6.707552E-2,-1.1920965E-3],"split_indices":[7,40,30,0,0,0,0],"split_type":[0,0,0,0,0,0,0],"sum_hessian":[5.0059767E0,2.5085337E0,2.4974432E0,1.0734352E0,1.4350985E0,1.027859E0,1.4695841E0],"tree_param":{"num_deleted":"0","num_feature":"58","num_nodes":"7","size_leaf_vector":"1"}},{"base_weights":[-1.8253615E-3,9.885996E-2,-5.2197192E-2,-5.1010817E-2,8.962335E-2,-6.943566E-2,4.571583E-2],"categories":[],"categories_nodes":[],"categories_segments":[],"categories_sizes":[],"default_left":[0,0,0,0,0,0,0],"id":59,"left_children":[1,3,-1,5,-1,-1,-1],"loss_changes":[1.2077183E-1,1.4728098E-1,0E0,1.5906931E-1,0E0,0E0,0E0],"parents":[2147483647,0,0,1,1,3,3],"right_children":[2,4,-1,6,-1,-1,-1],"split_conditions":[6.16E2,3E0,-5.2197192E-2,7.988041E7,8.962335E-2,-6.943566E-2,4.571583E-2],"split_indices":[47,51,0,22,0,0,0],"split_type":[0,0,0,0,0,0,0],"sum_hessian":[4.97485E0,3.4077322E0,1.5671179E0,2.373164E0,1.0345683E0,1.1844544E0,1.1887095E0],"tree_param":{"num_deleted":"0","num_feature":"58","num_nodes":"7","size_leaf_vector":"1"}},{"base_weights":[5.9437985E-4,1.2487575E-1,-1.2375752E-1,-1.0881082E-2,6.2331486E-2,-5.7273682E-2,4.629907E-3],"categories":[],"categories_nodes":[],"categories_segments":[],"categories_sizes":[],"default_left":[0,0,0,0,0,0,0],"id":60,"left_children":[1,3,5,-1,-1,-1,-1],"loss_changes":[1.0659398E-1,5.358493E-2,3.5194878E-2,0E0,0E0,0E0,0E0],"parents":[2147483647,0,0,1,1,2,2],"right_children":[2,4,6,-1,-1,-1,-1],"split_conditions":[2.12E2,9E1,3.722E3,-1.0881082E-2,6.2331486E-2,-5.7273682E-2,4.629907E-3],"split_indices":[7,40,41,0,0,0,0],"split_type":[0,0,0,0,0,0,0],"sum_hessian":[4.897243E0,2.4472094E0,2.450034E0,1.022321E0,1.4248883E0,1.4020182E0,1.0480157E0],"tree_param":{"num_deleted":"0","num_feature":"58","num_nodes":"7","size_leaf_vector":"1"}},{"base_weights":[2.8085933E-4,9.67409E-2,-4.7962267E-2,2.0615473E-1,-2.9270561E-2,4.311529E-3,9.031255E-2],"categories":[],"categories_nodes":[],"categories_segments":[],"categories_sizes":[],"default_left":[0,0,0,0,0,0,0],"id":61,"left_children":[1,3,-1,5,-1,-1,-1],"loss_changes":[1.062042E-1,1.1129314E-1,0E0,5.14493E-2,0E0,0E0,0E0],"parents":[2147483647,0,0,1,1,3,3],"right_children":[2,4,-1,6,-1,-1,-1],"split_conditions":[5.0444443E1,8.2E1,-4.7962267E-2,3.7E2,-2.9270561E-2,4.311529E-3,9.031255E-2],"split_indices":[26,11,0,1,0,0,0],"split_type":[0,0,0,0,0,0,0],"sum_hessian":[4.873543E0,3.2887259E0,1.5848168E0,2.0649889E0,1.223737E0,1.0646371E0,1.0003518E0],"tree_param":{"num_deleted":"0","num_feature":"58","num_nodes":"7","size_leaf_vector":"1"}},{"base_weights":[3.2334365E-3,-1.0284625E-1,1.356137E-1,2.790203E-2,-7.779449E-2,8.46663E-2,-2.40619E-2],"categories":[],"categories_nodes":[],"categories_segments":[],"categories_sizes":[],"default_left":[0,0,0,0,0,0,0],"id":62,"left_children":[1,3,5,-1,-1,-1,-1],"loss_changes":[9.594843E-2,1.408872E-1,1.18474156E-1,0E0,0E0,0E0,0E0],"parents":[2147483647,0,0,1,1,2,2],"right_children":[2,4,6,-1,-1,-1,-1],"split_conditions":[1.3129626E12,4.9225E4,1.3136627E12,2.790203E-2,-7.779449E-2,8.46663E-2,-2.40619E-2],"split_indices":[5,57,22,0,0,0,0],"split_type":[0,0,0,0,0,0,0],"sum_hessian":[4.8393445E0,2.8103995E0,2.0289452E0,1.4282444E0,1.3821552E0,1.0249945E0,1.0039506E0],"tree_param":{"num_deleted":"0","num_feature":"58","num_nodes":"7","size_leaf_vector":"1"}},{"base_weights":[4.1032275E-3,-3.983247E-2,1.0965824E-1,7.969531E-2,-1.2484995E-2],"categories":[],"categories_nodes":[],"categories_segments":[],"categories_sizes":[],"default_left":[0,0,0,0,0],"id":63,"left_children":[1,-1,3,-1,-1],"loss_changes":[9.756066E-2,0E0,1.0051845E-1,0E0,0E0],"parents":[2147483647,0,0,2,2],"right_children":[2,-1,4,-1,-1],"split_conditions":[7.988041E7,-3.983247E-2,3.535534E0,7.969531E-2,-1.2484995E-2],"split_indices":[22,0,15,0,0],"split_type":[0,0,0,0,0],"sum_hessian":[4.744727E0,1.9535689E0,2.791158E0,1.0019147E0,1.7892433E0],"tree_param":{"num_deleted":"0","num_feature":"58","num_nodes":"5","size_leaf_vector":"1"}},{"base_weights":[7.6424563E-3,8.3613195E-2,-4.2507153E-2,1.9894186E-1,-4.1388024E-2,-2.5285749E-2,1.2263671E-1],"categories":[],"categories_nodes":[],"categories_segments":[],"categories_sizes":[],"default_left":[0,0,0,0,0,0,0],"id":64,"left_children":[1,3,-1,5,-1,-1,-1],"loss_changes":[7.6201454E-2,1.3959295E-1,0E0,2.3034127E-1,0E0,0E0,0E0],"parents":[2147483647,0,0,1,1,3,3],"right_children":[2,4,-1,6,-1,-1,-1],"split_conditions":[1.313745E12,6.16E2,-4.2507153E-2,1.07E2,-4.1388024E-2,-2.5285749E-2,1.2263671E-1],"split_indices":[4,47,0,40,0,0,0],"split_type":[0,0,0,0,0,0,0],"sum_hessian":[4.6725097E0,3.388668E0,1.2838414E0,2.2958302E0,1.0928378E0,1.2317295E0,1.0641007E0],"tree_param":{"num_deleted":"0","num_feature":"58","num_nodes":"7","size_leaf_vector":"1"}},{"base_weights":[8.35898E-3,-9.344942E-2,4.0006217E-2,2.4856547E-2,-7.099972E-2],"categories":[],"categories_nodes":[],"categories_segments":[],"categories_sizes":[],"default_left":[0,0,0,0,0],"id":65,"left_children":[1,3,-1,-1,-1],"loss_changes":[8.390859E-2,1.1258279E-1,0E0,0E0,0E0],"parents":[2147483647,0,0,1,1],"right_children":[2,4,-1,-1,-1],"split_conditions":[1.3129626E12,4.9225E4,4.0006217E-2,2.4856547E-2,-7.099972E-2],"split_indices":[5,57,0,0,0],"split_type":[0,0,0,0,0],"sum_hessian":[4.6144323E0,2.6821766E0,1.9322557E0,1.3911221E0,1.2910544E0],"tree_param":{"num_deleted":"0","num_feature":"58","num_nodes":"5","size_leaf_vector":"1"}},{"base_weights":[4.5446E-3,-3.5969663E-2,9.9049576E-2,-1.0386764E-2,6.602473E-2],"categories":[],"categories_nodes":[],"categories_segments":[],"categories_sizes":[],"default_left":[0,0,0,0,0],"id":66,"left_children":[1,-1,3,-1,-1],"loss_changes":[7.7304505E-2,0E0,6.763765E-2,0E0,0E0],"parents":[2147483647,0,0,2,2],"right_children":[2,-1,4,-1,-1],"split_conditions":[7.988041E7,-3.5969663E-2,5.0675E4,-1.0386764E-2,6.602473E-2],"split_indices":[22,0,57,0,0],"split_type":[0,0,0,0,0],"sum_hessian":[4.563405E0,1.8537267E0,2.7096784E0,1.6268642E0,1.0828142E0],"tree_param":{"num_deleted":"0","num_feature":"58","num_nodes":"5","size_leaf_vector":"1"}},{"base_weights":[6.7460923E-3,8.5829794E-2,-4.2992167E-2,-3.476068E-2,1.9935544E-1,1.09632514E-1,-2.0559628E-2],"categories":[],"categories_nodes":[],"categories_segments":[],"categories_sizes":[],"default_left":[0,0,0,0,0,0,0],"id":67,"left_children":[1,3,-1,-1,5,-1,-1],"loss_changes":[7.77467E-2,1.201194E-1,0E0,0E0,1.6202325E-1,0E0,0E0],"parents":[2147483647,0,0,1,1,4,4],"right_children":[2,4,-1,-1,6,-1,-1],"split_conditions":[1.313745E12,6.4E1,-4.2992167E-2,-3.476068E-2,8.3E1,1.09632514E-1,-2.0559628E-2],"split_indices":[4,50,0,0,29,0,0],"split_type":[0,0,0,0,0,0,0],"sum_hessian":[4.5151196E0,3.2370684E0,1.2780513E0,1.1583717E0,2.078697E0,1.0583652E0,1.0203316E0],"tree_param":{"num_deleted":"0","num_feature":"58","num_nodes":"7","size_leaf_vector":"1"}},{"base_weights":[6.9773425E-3,4.0756453E-2,-9.0799674E-2,-6.2177733E-2,2.6892217E-2],"categories":[],"categories_nodes":[],"categories_segments":[],"categories_sizes":[],"default_left":[0,0,0,0,0],"id":68,"left_children":[1,-1,3,-1,-1],"loss_changes":[8.11314E-2,0E0,9.640777E-2,0E0,0E0],"parents":[2147483647,0,0,2,2],"right_children":[2,-1,4,-1,-1],"split_conditions":[8.2E1,4.0756453E-2,1.3129626E12,-6.2177733E-2,2.6892217E-2],"split_indices":[46,0,5,0,0],"split_type":[0,0,0,0,0],"sum_hessian":[4.459441E0,1.755769E0,2.703672E0,1.5528231E0,1.1508489E0],"tree_param":{"num_deleted":"0","num_feature":"58","num_nodes":"5","size_leaf_vector":"1"}},{"base_weights":[5.8080764E-3,-3.59277E-2,1.0078083E-1,-1.9553492E-2,5.8499184E-2],"categories":[],"categories_nodes":[],"categories_segments":[],"categories_sizes":[],"default_left":[0,0,0,0,0],"id":69,"left_children":[1,-1,3,-1,-1],"loss_changes":[7.664783E-2,0E0,6.940952E-2,0E0,0E0],"parents":[2147483647,0,0,2,2],"right_children":[2,-1,4,-1,-1],"split_conditions":[7.988041E7,-3.59277E-2,8E1,-1.9553492E-2,5.8499184E-2],"split_indices":[22,0,36,0,0],"split_type":[0,0,0,0,0],"sum_hessian":[4.415177E0,1.7889524E0,2.6262245E0,1.062635E0,1.5635896E0],"tree_param":{"num_deleted":"0","num_feature":"58","num_nodes":"5","size_leaf_vector":"1"}},{"base_weights":[4.7081765E-3,8.675995E-2,-4.3579813E-2,-3.1066835E-2,5.7836726E-2],"categories":[],"categories_nodes":[],"categories_segments":[],"categories_sizes":[],"default_left":[0,0,0,0,0],"id":70,"left_children":[1,3,-1,-1,-1],"loss_changes":[7.868783E-2,1.0264295E-1,0E0,0E0,0E0],"parents":[2147483647,0,0,1,1],"right_children":[2,4,-1,-1,-1],"split_conditions":[1.313745E12,6.4E1,-4.3579813E-2,-3.1066835E-2,5.7836726E-2],"split_indices":[4,50,0,0,0],"split_type":[0,0,0,0,0],"sum_hessian":[4.3702617E0,3.0972428E0,1.2730188E0,1.1165053E0,1.9807376E0],"tree_param":{"num_deleted":"0","num_feature":"58","num_nodes":"5","size_leaf_vector":"1"}},{"base_weights":[2.4748142E-4,-8.899123E-2,3.6134683E-2,3.0147819E-2,-7.4616596E-2],"categories":[],"categories_nodes":[],"categories_segments":[],"categories_sizes":[],"default_left":[0,0,0,0,0],"id":71,"left_children":[1,3,-1,-1,-1],"loss_changes":[6.800312E-2,1.3516562E-1,0E0,0E0,0E0],"parents":[2147483647,0,0,1,1],"right_children":[2,4,-1,-1,-1],"split_conditions":[3.636E3,5E0,3.6134683E-2,3.0147819E-2,-7.4616596E-2],"split_indices":[2,6,0,0,0],"split_type":[0,0,0,0,0],"sum_hessian":[4.3403773E0,2.6400373E0,1.7003399E0,1.3771847E0,1.2628527E0],"tree_param":{"num_deleted":"0","num_feature":"58","num_nodes":"5","size_leaf_vector":"1"}},{"base_weights":[-1.9141439E-3,3.5246965E-2,-9.014018E-2,-5.9698097E-2,2.4439795E-2],"categories":[],"categories_nodes":[],"categories_segments":[],"categories_sizes":[],"default_left":[0,0,0,0,0],"id":72,"left_children":[1,-1,3,-1,-1],"loss_changes":[6.638759E-2,0E0,8.3679765E-2,0E0,0E0],"parents":[2147483647,0,0,2,2],"right_children":[2,-1,4,-1,-1],"split_conditions":[8.2E1,3.5246965E-2,1.3129626E12,-5.9698097E-2,2.4439795E-2],"split_indices":[46,0,5,0,0],"split_type":[0,0,0,0,0],"sum_hessian":[4.296578E0,1.684757E0,2.6118207E0,1.5004549E0,1.1113659E0],"tree_param":{"num_deleted":"0","num_feature":"58","num_nodes":"5","size_leaf_vector":"1"}},{"base_weights":[-1.3463303E-3,-3.4690607E-2,8.759843E-2,-1.9456755E-2,5.2473966E-2],"categories":[],"categories_nodes":[],"categories_segments":[],"categories_sizes":[],"default_left":[0,0,0,0,0],"id":73,"left_children":[1,-1,3,-1,-1],"loss_changes":[6.358137E-2,0E0,5.8279812E-2,0E0,0E0],"parents":[2147483647,0,0,2,2],"right_children":[2,-1,4,-1,-1],"split_conditions":[7.988041E7,-3.4690607E-2,8E1,-1.9456755E-2,5.2473966E-2],"split_indices":[22,0,36,0,0],"split_type":[0,0,0,0,0],"sum_hessian":[4.258213E0,1.7322667E0,2.5259461E0,1.0135226E0,1.5124235E0],"tree_param":{"num_deleted":"0","num_feature":"58","num_nodes":"5","size_leaf_vector":"1"}},{"base_weights":[-1.3376508E-3,7.4338734E-2,-4.0474996E-2,-2.9867144E-2,5.2212745E-2],"categories":[],"categories_nodes":[],"categories_segments":[],"categories_sizes":[],"default_left":[0,0,0,0,0],"id":74,"left_children":[1,3,-1,-1,-1],"loss_changes":[6.279499E-2,8.6277306E-2,0E0,0E0,0E0],"parents":[2147483647,0,0,1,1],"right_children":[2,4,-1,-1,-1],"split_conditions":[1.313745E12,6.4E1,-4.0474996E-2,-2.9867144E-2,5.2212745E-2],"split_indices":[4,50,0,0,0],"split_type":[0,0,0,0,0],"sum_hessian":[4.2197676E0,2.9768054E0,1.2429619E0,1.0853277E0,1.8914778E0],"tree_param":{"num_deleted":"0","num_feature":"58","num_nodes":"5","size_leaf_vector":"1"}},{"base_weights":[-4.4774306E-3,-8.8297054E-2,3.0342773E-2,-6.689509E-2,2.2943154E-2],"categories":[],"categories_nodes":[],"categories_segments":[],"categories_sizes":[],"default_left":[0,0,0,0,0],"id":75,"left_children":[1,3,-1,-1,-1],"loss_changes":[5.4915834E-2,9.317309E-2,0E0,0E0,0E0],"parents":[2147483647,0,0,1,1],"right_children":[2,4,-1,-1,-1],"split_conditions":[1.3129626E12,4.28E2,3.0342773E-2,-6.689509E-2,2.2943154E-2],"split_indices":[5,1,0,0,0],"split_type":[0,0,0,0,0],"sum_hessian":[4.194295E0,2.4299266E0,1.7643683E0,1.1426535E0,1.2872732E0],"tree_param":{"num_deleted":"0","num_feature":"58","num_nodes":"5","size_leaf_vector":"1"}},{"base_weights":[-5.8376533E-3,7.372319E-2,-4.0041197E-2,6.1560173E-2,-1.3982007E-2],"categories":[],"categories_nodes":[],"categories_segments":[],"categories_sizes":[],"default_left":[0,0,0,0,0],"id":76,"left_children":[1,3,-1,-1,-1],"loss_changes":[6.2176585E-2,6.998412E-2,0E0,0E0,0E0],"parents":[2147483647,0,0,1,1],"right_children":[2,4,-1,-1,-1],"split_conditions":[5.0444443E1,1.7E1,-4.0041197E-2,6.1560173E-2,-1.3982007E-2],"split_indices":[26,38,0,0,0],"split_type":[0,0,0,0,0],"sum_hessian":[4.1539955E0,2.8190832E0,1.3349121E0,1.010095E0,1.8089883E0],"tree_param":{"num_deleted":"0","num_feature":"58","num_nodes":"5","size_leaf_vector":"1"}},{"base_weights":[-2.6754735E-3,-3.187701E-2,7.814701E-2,-3.984356E-2,7.322458E-2],"categories":[],"categories_nodes":[],"categories_segments":[],"categories_sizes":[],"default_left":[0,0,0,0,0],"id":77,"left_children":[1,-1,3,-1,-1],"loss_changes":[5.129258E-2,0E0,1.535573E-1,0E0,0E0],"parents":[2147483647,0,0,2,2],"right_children":[2,-1,4,-1,-1],"split_conditions":[6E1,-3.187701E-2,8E1,-3.984356E-2,7.322458E-2],"split_indices":[29,0,36,0,0],"split_type":[0,0,0,0,0],"sum_hessian":[4.1350355E0,1.6744218E0,2.4606135E0,1.1712179E0,1.2893956E0],"tree_param":{"num_deleted":"0","num_feature":"58","num_nodes":"5","size_leaf_vector":"1"}},{"base_weights":[-1.6408899E-3,9.528371E-2,-3.6325254E-2,5.481585E-2,-1.6078481E-2],"categories":[],"categories_nodes":[],"categories_segments":[],"categories_sizes":[],"default_left":[0,0,0,0,0],"id":78,"left_children":[1,3,-1,-1,-1],"loss_changes":[7.0307545E-2,5.355739E-2,0E0,0E0,0E0],"parents":[2147483647,0,0,1,1],"right_children":[2,4,-1,-1,-1],"split_conditions":[2.081666E0,1.085E2,-3.6325254E-2,5.481585E-2,-1.6078481E-2],"split_indices":[55,9,0,0,0],"split_type":[0,0,0,0,0],"sum_hessian":[4.0764656E0,2.3620234E0,1.714442E0,1.3448775E0,1.0171459E0],"tree_param":{"num_deleted":"0","num_feature":"58","num_nodes":"5","size_leaf_vector":"1"}},{"base_weights":[-5.622164E-4,6.920009E-2,-3.6386617E-2,-2.3149192E-2,5.6220848E-2],"categories":[],"categories_nodes":[],"categories_segments":[],"categories_sizes":[],"default_left":[0,0,0,0,0],"id":79,"left_children":[1,3,-1,-1,-1],"loss_changes":[5.100607E-2,8.0953404E-2,0E0,0E0,0E0],"parents":[2147483647,0,0,1,1],"right_children":[2,4,-1,-1,-1],"split_conditions":[1.313745E12,8E1,-3.6386617E-2,-2.3149192E-2,5.6220848E-2],"split_indices":[4,36,0,0,0],"split_type":[0,0,0,0,0],"sum_hessian":[4.059614E0,2.8433661E0,1.216248E0,1.4254714E0,1.4178947E0],"tree_param":{"num_deleted":"0","num_feature":"58","num_nodes":"5","size_leaf_vector":"1"}},{"base_weights":[-1.1198802E-3,8.548789E-2,-3.2476712E-2,4.6074428E-2,-1.0755684E-2],"categories":[],"categories_nodes":[],"categories_segments":[],"categories_sizes":[],"default_left":[0,0,0,0,0],"id":80,"left_children":[1,3,-1,-1,-1],"loss_changes":[5.592261E-2,3.310275E-2,0E0,0E0,0E0],"parents":[2147483647,0,0,1,1],"right_children":[2,4,-1,-1,-1],"split_conditions":[2.081666E0,1.085E2,-3.2476712E-2,4.6074428E-2,-1.0755684E-2],"split_indices":[55,9,0,0,0],"split_type":[0,0,0,0,0],"sum_hessian":[4.0295386E0,2.3399787E0,1.6895598E0,1.3286556E0,1.011323E0],"tree_param":{"num_deleted":"0","num_feature":"58","num_nodes":"5","size_leaf_vector":"1"}},{"base_weights":[-1.626842E-4,-3.4763794E-2,9.078068E-2,-2.8973293E-2,6.865064E-2],"categories":[],"categories_nodes":[],"categories_segments":[],"categories_sizes":[],"default_left":[0,0,0,0,0],"id":81,"left_children":[1,-1,3,-1,-1],"loss_changes":[6.332858E-2,0E0,1.0928222E-1,0E0,0E0],"parents":[2147483647,0,0,2,2],"right_children":[2,-1,4,-1,-1],"split_conditions":[6E1,-3.4763794E-2,8E1,-2.8973293E-2,6.865064E-2],"split_indices":[29,0,36,0,0],"split_type":[0,0,0,0,0],"sum_hessian":[4.01812E0,1.6475631E0,2.3705566E0,1.1331558E0,1.2374007E0],"tree_param":{"num_deleted":"0","num_feature":"58","num_nodes":"5","size_leaf_vector":"1"}},{"base_weights":[9.604444E-4,8.842667E-2,-3.2733113E-2,4.2892247E-2,-5.671898E-3],"categories":[],"categories_nodes":[],"categories_segments":[],"categories_sizes":[],"default_left":[0,0,0,0,0],"id":82,"left_children":[1,3,-1,-1,-1],"loss_changes":[5.7472263E-2,2.21426E-2,0E0,0E0,0E0],"parents":[2147483647,0,0,1,1],"right_children":[2,4,-1,-1,-1],"split_conditions":[2.081666E0,1.085E2,-3.2733113E-2,4.2892247E-2,-5.671898E-3],"split_indices":[55,9,0,0,0],"split_type":[0,0,0,0,0],"sum_hessian":[3.9674475E0,2.3202956E0,1.647152E0,1.3182759E0,1.0020198E0],"tree_param":{"num_deleted":"0","num_feature":"58","num_nodes":"5","size_leaf_vector":"1"}},{"base_weights":[1.5798387E-3,-3.178439E-2,8.587942E-2,5.1637474E-2,-1.3937E-2],"categories":[],"categories_nodes":[],"categories_segments":[],"categories_sizes":[],"default_left":[0,0,0,0,0],"id":83,"left_children":[1,-1,3,-1,-1],"loss_changes":[5.403389E-2,0E0,4.6015065E-2,0E0,0E0],"parents":[2147483647,0,0,2,2],"right_children":[2,-1,4,-1,-1],"split_conditions":[7.988041E7,-3.178439E-2,5.0444443E1,5.1637474E-2,-1.3937E-2],"split_indices":[22,0,26,0,0],"split_type":[0,0,0,0,0],"sum_hessian":[3.9572394E0,1.626177E0,2.3310626E0,1.2292659E0,1.1017965E0],"tree_param":{"num_deleted":"0","num_feature":"58","num_nodes":"5","size_leaf_vector":"1"}}]},"name":"gbtree"},"learner_model_param":{"base_score":"3.1002674E-1","boost_from_average":"1","num_class":"0","num_feature":"58","num_target":"1"},"objective":{"name":"binary:logistic","reg_loss_param":{"scale_pos_weight":"1"}}},"version":[2,1,3]}